{"learner":{"attributes":{"best_iteration":"99","best_ntree_limit":"100"},"feature_names":["having_IP_Address","URL_Length","Shortining_Service","having_At_Symbol","double_slash_redirecting","Prefix_Suffix","having_Sub_Domain","SSLfinal_State","Domain_registeration_length","Favicon","port","HTTPS_token","Request_URL","URL_of_Anchor","Links_in_tags","SFH","Submitting_to_email","Abnormal_URL","Redirect","on_mouseover","RightClick","popUpWidnow","Iframe","age_of_domain","DNSRecord","web_traffic","Page_Rank","Google_Index","Links_pointing_to_page","Statistical_report"],"feature_types":["int","int","int","int","int","int","int","int","int","int","int","int","int","int","int","int","int","int","int","int","int","int","int","int","int","int","int","int","int","int"],"gradient_booster":{"model":{"gbtree_model_param":{"num_parallel_tree":"1","num_trees":"100","size_leaf_vector":"0"},"tree_info":[0,0,0,0,0,0,0,0,0,0,0,0,0,0,0,0,0,0,0,0,0,0,0,0,0,0,0,0,0,0,0,0,0,0,0,0,0,0,0,0,0,0,0,0,0,0,0,0,0,0,0,0,0,0,0,0,0,0,0,0,0,0,0,0,0,0,0,0,0,0,0,0,0,0,0,0,0,0,0,0,0,0,0,0,0,0,0,0,0,0,0,0,0,0,0,0,0,0,0,0],"trees":[{"base_weights":[2.2768785E-1,-1.5524535E0,1.5561168E0,-1.9973527E0,-7.625731E-1,-1.4328358E0,1.6870368E0,-1.4699887E0,-7.2202166E-3,-1.68E0,1.6363636E0,1.3346775E0,1.8562698E0,-1.5421965E0,1.6363636E0,-2.3293173E-1,1.9090909E0,1E0,-1.8319328E0,1.9313304E0,8.030303E-1,1.6025999E0,1.944334E0,-1.7266514E0,-1.3395349E0,2.1383648E-1,-1.0072993E0,-8.888889E-1,-1.9611651E0,4.9462366E-1,1.9461883E0,1.337884E0,1.9030303E0,-1.2307693E0,-1.7749361E0,-1.3809524E0,2.857143E-1,-8.091603E-1,5.942857E-1,-1.6111112E0,-7.76699E-1,-2.6086956E-1,-1.5294118E0,-2.4870466E-1,1.1208792E0,8.5057473E-1,1.7082067E0],"categories":[],"categories_nodes":[],"categories_segments":[],"categories_sizes":[],"default_left":[1,1,1,0,1,1,1,1,1,1,0,1,1,1,0,1,0,0,1,0,1,1,0,1,1,1,1,1,0,1,0,1,0,0,0,0,0,0,0,0,0,0,0,0,0,0,0],"id":0,"left_children":[1,3,5,-1,7,9,11,13,15,17,-1,19,21,23,-1,25,-1,-1,27,-1,29,31,-1,33,35,37,39,41,-1,43,-1,45,-1,-1,-1,-1,-1,-1,-1,-1,-1,-1,-1,-1,-1,-1,-1],"loss_changes":[6.540472E3,4.1385205E2,6.2215967E2,0E0,2.2842332E2,5.3575027E1,8.802783E1,5.2038544E1,9.030351E1,2.7280685E1,0E0,1.557846E2,1.9731201E1,5.770935E0,0E0,6.4823944E1,0E0,0E0,5.5081024E0,0E0,9.211255E1,1.8867126E1,0E0,4.4326782E-1,7.6307983E0,4.6892773E1,8.286537E0,3.2213693E0,0E0,9.768746E1,0E0,2.498468E1,0E0,0E0,0E0,0E0,0E0,0E0,0E0,0E0,0E0,0E0,0E0,0E0,0E0,0E0,0E0],"parents":[2147483647,0,0,1,1,2,2,4,4,5,5,6,6,7,7,8,8,9,9,11,11,12,12,13,13,15,15,18,18,20,20,21,21,23,23,24,24,25,25,26,26,27,27,29,29,31,31],"right_children":[2,4,6,-1,8,10,12,14,16,18,-1,20,22,24,-1,26,-1,-1,28,-1,30,32,-1,34,36,38,40,42,-1,44,-1,46,-1,-1,-1,-1,-1,-1,-1,-1,-1,-1,-1,-1,-1,-1,-1],"split_conditions":[5E-1,-5E-1,-5E-1,-5.9920585E-1,-5E-1,0E0,5E-1,0E0,0E0,-5E-1,4.909091E-1,-5E-1,-5E-1,5E-1,4.909091E-1,0E0,5.7272726E-1,3E-1,0E0,5.7939917E-1,5E-1,5E-1,5.8330023E-1,0E0,5E-1,-5E-1,0E0,0E0,-5.883495E-1,5E-1,5.838565E-1,5E-1,5.709091E-1,-3.692308E-1,-5.3248084E-1,-4.1428572E-1,8.5714296E-2,-2.427481E-1,1.7828572E-1,-4.8333338E-1,-2.3300971E-1,-7.826087E-2,-4.5882356E-1,-7.46114E-2,3.3626378E-1,2.5517243E-1,5.12462E-1],"split_indices":[7,13,13,0,14,5,25,5,5,28,0,25,14,25,0,8,0,0,10,0,13,6,0,11,1,6,27,8,0,6,0,28,0,0,0,0,0,0,0,0,0,0,0,0,0,0,0],"split_type":[0,0,0,0,0,0,0,0,0,0,0,0,0,0,0,0,0,0,0,0,0,0,0,0,0,0,0,0,0,0,0,0,0,0,0,0,0,0,0,0,0,0,0,0,0,0,0],"sum_hessian":[2.76375E3,1.181E3,1.58275E3,7.545E2,4.265E2,6.6E1,1.51675E3,2.1975E2,2.0675E2,6.15E1,4.5E0,4.95E2,1.02175E3,2.1525E2,4.5E0,1.8575E2,2.1E1,3E0,5.85E1,2.32E2,2.63E2,2.6825E2,7.535E2,1.0875E2,1.065E2,1.1825E2,6.75E1,8E0,5.05E1,2.0825E2,5.475E1,1.455E2,1.2275E2,1.2E1,9.675E1,1.04E2,2.5E0,3.175E1,8.65E1,1.7E1,5.05E1,4.75E0,3.25E0,9.55E1,1.1275E2,6.425E1,8.125E1],"tree_param":{"num_deleted":"0","num_feature":"30","num_nodes":"47","size_leaf_vector":"0"}},{"base_weights":[1.731262E-1,-1.1802099E0,1.1830579E0,-1.5470077E0,-5.6090015E-1,-1.0956897E0,1.2826371E0,-1.0979182E0,-5.635599E-3,-1.2931625E0,1.3043884E0,9.9956673E-1,1.4218142E0,-1.1539714E0,1.3043884E0,-2.9491994E-1,9.553311E-1,7.8980297E-1,-1.4181712E0,1.4877162E0,5.8704007E-1,1.2073356E0,1.4981607E0,-5.5432683E-1,-1.1938297E0,-5.3760326E-1,8.325394E-1,1.2057807E0,-1.5709254E0,2.2432147E-1,1.0351049E0,-6.425722E-1,-1.5382675E0,3.546869E-1,1.5079206E0,1.0042323E0,1.5911847E0,-9.1754335E-1,1.3830569E0,-1.3084687E0,-9.867485E-1,-1.0006461E0,4.9923748E-2,1.1282965E0,-1.3080528E0,-1.2875061E0,1.3551191E0,-1.3574969E0,7.52193E-1,-1.7514157E-1,8.130357E-1,7.123244E-1,1.4008213E0],"categories":[],"categories_nodes":[],"categories_segments":[],"categories_sizes":[],"default_left":[1,1,1,0,1,1,1,1,1,1,0,1,1,1,0,1,1,1,1,0,1,1,0,1,1,1,1,1,0,0,0,1,0,1,0,1,0,0,0,0,0,0,0,0,0,0,0,0,0,0,0,0,0],"id":1,"left_children":[1,3,5,-1,7,9,11,13,15,17,-1,19,21,23,-1,25,27,29,31,-1,33,35,-1,37,39,41,43,45,-1,-1,-1,47,-1,49,-1,51,-1,-1,-1,-1,-1,-1,-1,-1,-1,-1,-1,-1,-1,-1,-1,-1,-1],"loss_changes":[3.5248518E3,2.4950195E2,3.3650586E2,0E0,1.2270877E2,3.1247307E1,5.4341064E1,2.9675598E1,5.6807713E1,1.625676E1,0E0,9.375156E1,1.3689697E1,4.2369385E0,0E0,4.3419502E1,3.1810799E1,3.134339E-1,4.153015E0,0E0,5.431111E1,1.8174835E1,0E0,1.1572002E1,3.2507324E0,3.537358E1,1.933541E1,1.7973286E1,0E0,0E0,0E0,1.0113518E1,0E0,5.0166073E1,0E0,1.8517395E1,0E0,0E0,0E0,0E0,0E0,0E0,0E0,0E0,0E0,0E0,0E0,0E0,0E0,0E0,0E0,0E0,0E0],"parents":[2147483647,0,0,1,1,2,2,4,4,5,5,6,6,7,7,8,8,9,9,11,11,12,12,13,13,15,15,16,16,17,17,18,18,20,20,21,21,23,23,24,24,25,25,26,26,27,27,31,31,33,33,35,35],"right_children":[2,4,6,-1,8,10,12,14,16,18,-1,20,22,24,-1,26,28,30,32,-1,34,36,-1,38,40,42,44,46,-1,-1,-1,48,-1,50,-1,52,-1,-1,-1,-1,-1,-1,-1,-1,-1,-1,-1,-1,-1,-1,-1,-1,-1],"split_conditions":[5E-1,-5E-1,-5E-1,-4.6410233E-1,-5E-1,0E0,5E-1,0E0,5E-1,-5E-1,3.9131653E-1,-5E-1,-5E-1,0E0,3.9131653E-1,5E-1,-5E-1,5E-1,0E0,4.4631487E-1,5E-1,-5E-1,4.4944823E-1,-5E-1,5E-1,5E-1,5E-1,0E0,-4.7127762E-1,6.7296445E-2,3.1053147E-1,0E0,-4.6148026E-1,5E-1,4.5237622E-1,5E-1,4.7735545E-1,-2.75263E-1,4.1491708E-1,-3.9254063E-1,-2.9602456E-1,-3.0019385E-1,1.49771245E-2,3.3848897E-1,-3.9241585E-1,-3.8625184E-1,4.0653574E-1,-4.0724906E-1,2.256579E-1,-5.2542474E-2,2.4391073E-1,2.1369733E-1,4.2024642E-1],"split_indices":[7,13,13,0,14,5,25,5,13,28,0,25,14,21,0,1,7,6,22,0,13,15,0,15,28,28,28,19,0,0,0,12,0,6,0,6,0,0,0,0,0,0,0,0,0,0,0,0,0,0,0,0,0],"split_type":[0,0,0,0,0,0,0,0,0,0,0,0,0,0,0,0,0,0,0,0,0,0,0,0,0,0,0,0,0,0,0,0,0,0,0,0,0,0,0,0,0,0,0,0,0,0,0,0,0,0,0,0,0],"sum_hessian":[2.5769302E3,1.1011672E3,1.4757628E3,6.906305E2,4.1053683E2,6.1370518E1,1.4143923E3,2.082006E2,2.0233621E2,5.7131104E1,4.2394133E0,4.6889496E2,9.454973E2,2.039612E2,4.2394133E0,1.5605219E2,4.6284023E1,2.9334998E0,5.4197605E1,2.1356897E2,2.55326E2,2.5262312E2,6.928742E2,1.364138E1,1.9031981E2,1.2884232E2,2.7209871E1,4.2584915E1,3.6991107E0,1.4667499E0,1.4667499E0,8.118387E0,4.607922E1,2.0498907E2,5.0336926E1,1.6757277E2,8.505035E1,1.1930985E1,1.7103945E0,1.19079384E2,7.1240425E1,7.1661316E1,5.7180996E1,2.4322266E1,2.8876057E0,1.9758363E0,4.0609077E1,5.38492E0,2.7334666E0,9.53672E1,1.09621864E2,9.813613E1,6.943664E1],"tree_param":{"num_deleted":"0","num_feature":"30","num_nodes":"53","size_leaf_vector":"0"}},{"base_weights":[1.436085E-1,-9.8076344E-1,9.8325926E-1,-1.3429793E0,-4.3242276E-1,-9.182703E-1,1.0654536E0,-5.4089534E-1,1.3674246E0,-1.0921143E0,1.1147326E0,8.029749E-1,1.2011616E0,-9.207214E-1,-1.4610429E-1,6.721132E-1,-1.211788E0,1.2738163E0,4.472784E-1,9.7801924E-1,1.2852805E0,-1.1030879E0,-7.3220634E-1,-1.0917593E0,7.5554304E-2,1.8574248E-1,8.915594E-1,-5.238623E-1,-1.327185E0,8.710861E-1,1.2973316E0,2.6008627E-1,1.300446E0,5.302503E-1,1.1613653E0,1.1798931E0,1.3203363E0,-1.3781842E0,-9.87269E-1,-1.3056064E0,-5.5914885E-1,6.402975E-1,-1.4163537E0,-1.07446484E-1,9.094554E-1,-1.1597978E0,5.8669746E-1,-3.4968388E-1,1.1423088E0,-3.644468E-1,5.1693666E-1,-2.0660524E-1,8.799886E-1,1.033279E0,1.3644353E0,8.574846E-1,1.2693617E0],"categories":[],"categories_nodes":[],"categories_segments":[],"categories_sizes":[],"default_left":[1,1,1,0,1,1,1,1,0,1,0,1,1,1,1,1,1,1,1,1,1,1,1,1,1,0,0,1,0,1,0,1,0,1,1,1,0,0,0,0,0,0,0,0,0,0,0,0,0,0,0,0,0,0,0,0,0],"id":2,"left_children":[1,3,5,-1,7,9,11,13,-1,15,-1,17,19,21,23,25,27,29,31,33,35,37,39,41,43,-1,-1,45,-1,47,-1,49,-1,51,53,55,-1,-1,-1,-1,-1,-1,-1,-1,-1,-1,-1,-1,-1,-1,-1,-1,-1,-1,-1,-1,-1],"loss_changes":[2.1167986E3,1.8982056E2,2.0158752E2,0E0,7.5478165E1,2.0203194E1,4.287744E1,5.4113808E1,0E0,1.1369507E1,0E0,7.018817E1,1.3934082E1,5.5246124E0,3.751507E1,2.4200892E-1,3.0495987E0,5.866699E-1,3.834538E1,1.7917435E1,6.0180664E-1,1.5594101E0,8.552383E0,2.0008099E1,2.2317709E1,0E0,0E0,6.633104E0,0E0,4.7184496E0,0E0,3.2252266E1,0E0,1.7557125E1,2.734314E0,3.391632E0,0E0,0E0,0E0,0E0,0E0,0E0,0E0,0E0,0E0,0E0,0E0,0E0,0E0,0E0,0E0,0E0,0E0,0E0,0E0,0E0,0E0],"parents":[2147483647,0,0,1,1,2,2,4,4,5,5,6,6,7,7,9,9,11,11,12,12,13,13,14,14,15,15,16,16,17,17,18,18,19,19,20,20,21,21,22,22,23,23,24,24,27,27,29,29,31,31,33,33,34,34,35,35],"right_children":[2,4,6,-1,8,10,12,14,-1,16,-1,18,20,22,24,26,28,30,32,34,36,38,40,42,44,-1,-1,46,-1,48,-1,50,-1,52,54,56,-1,-1,-1,-1,-1,-1,-1,-1,-1,-1,-1,-1,-1,-1,-1,-1,-1,-1,-1,-1,-1],"split_conditions":[5E-1,-5E-1,-5E-1,-4.028938E-1,0E0,0E0,5E-1,-5E-1,4.102274E-1,-5E-1,3.344198E-1,-5E-1,-5E-1,5E-1,0E0,5E-1,0E0,0E0,5E-1,0E0,0E0,0E0,0E0,0E0,5E-1,5.5722747E-2,2.6746783E-1,0E0,-3.9815554E-1,-5E-1,3.891995E-1,0E0,3.9013383E-1,-5E-1,-5E-1,5E-1,3.961009E-1,-4.1345528E-1,-2.961807E-1,-3.9168194E-1,-1.6774467E-1,1.9208924E-1,-4.2490613E-1,-3.2233946E-2,2.7283663E-1,-3.4793934E-1,1.7600924E-1,-1.04905166E-1,3.4269267E-1,-1.09334044E-1,1.55081E-1,-6.1981574E-2,2.639966E-1,3.099837E-1,4.093306E-1,2.572454E-1,3.8080853E-1],"split_indices":[7,13,13,0,5,5,25,14,0,28,0,25,14,25,27,6,22,27,13,12,0,24,27,11,13,0,0,12,0,6,0,24,0,6,15,28,0,0,0,0,0,0,0,0,0,0,0,0,0,0,0,0,0,0,0,0,0],"split_type":[0,0,0,0,0,0,0,0,0,0,0,0,0,0,0,0,0,0,0,0,0,0,0,0,0,0,0,0,0,0,0,0,0,0,0,0,0,0,0,0,0,0,0,0,0,0,0,0,0,0,0,0,0,0,0,0,0],"sum_hessian":[2.2401604E3,9.5763214E2,1.2825282E3,5.7581714E2,3.81815E2,5.2719315E1,1.2298088E3,3.607716E2,2.104338E1,4.8992706E1,3.7266061E0,4.2149442E2,8.0831445E2,1.8319176E2,1.7757986E2,2.8189921E0,4.6173714E1,1.8027724E2,2.412172E2,2.2474904E2,5.835654E2,9.064844E1,9.254331E1,3.297486E1,1.4460501E2,1.4505261E0,1.3684659E0,7.428605E0,3.874511E1,1.2044384E1,1.6823285E2,1.98885E2,4.2332195E1,6.642284E1,1.583262E2,1.5431375E2,4.2925168E2,2.362774E1,6.70207E1,1.9937857E1,7.260545E1,5.050808E0,2.7924053E1,1.19296394E2,2.5308613E1,4.695502E0,2.733103E0,2.1369069E0,9.907477E0,5.7836456E1,1.4104854E2,2.151102E1,4.491181E1,1.0082142E2,5.750479E1,3.5819378E1,1.1849437E2],"tree_param":{"num_deleted":"0","num_feature":"30","num_nodes":"57","size_leaf_vector":"0"}},{"base_weights":[1.2290249E-1,-8.4329695E-1,8.422829E-1,-1.2281295E0,-3.385443E-1,-8.039531E-1,9.1172785E-1,-4.2228648E-1,1.218976E0,-9.643997E-1,9.856342E-1,6.01918E-1,1.0506198E0,-7.523671E-1,-1.08024105E-1,5.80645E-1,-1.0858662E0,3.7114248E-1,1.2122996E0,8.4600073E-1,1.155744E0,-1.0009719E0,-5.923371E-1,-6.412963E-1,1.948904E-1,1.539181E-1,7.8487545E-1,-4.428698E-1,-1.2047274E0,6.8807535E-2,1.1429335E0,1.2776014E0,8.774345E-1,1.1916013E0,5.4723877E-1,1.0392747E0,1.1956255E0,-1.2955397E0,-6.9353306E-1,3.7666363E-1,-6.6157264E-1,-1.3398523E0,-4.328512E-1,-4.7929215E-1,4.424968E-1,-1.0982828E0,4.54798E-1,-1.0947379E-1,1.3829993E0,7.7180845E-1,1.2010647E0,5.036134E-1,1.1308854E0,8.77236E-1,1.223063E0,-5.956068E-2,7.920016E-1,7.0970714E-1,1.1380227E0],"categories":[],"categories_nodes":[],"categories_segments":[],"categories_sizes":[],"default_left":[1,1,1,0,1,1,1,1,0,1,0,1,1,1,1,1,1,1,1,1,1,1,1,1,1,0,0,1,0,1,1,0,1,1,1,1,0,0,0,0,0,0,0,0,0,0,0,0,0,0,0,0,0,0,0,0,0,0,0],"id":3,"left_children":[1,3,5,-1,7,9,11,13,-1,15,-1,17,19,21,23,25,27,29,31,33,35,37,39,41,43,-1,-1,45,-1,47,49,-1,51,53,55,57,-1,-1,-1,-1,-1,-1,-1,-1,-1,-1,-1,-1,-1,-1,-1,-1,-1,-1,-1,-1,-1,-1,-1],"loss_changes":[1.3236512E3,1.574696E2,1.2551868E2,0E0,4.65569E1,1.3788977E1,4.4454895E1,3.474504E1,0E0,8.426182E0,0E0,4.556682E1,1.4555542E1,5.914917E0,2.8095821E1,1.9984019E-1,2.436409E0,5.557193E1,8.292389E-1,2.5038559E1,9.605713E-1,4.77166E0,7.0900917E0,8.587673E0,1.8774193E1,0E0,0E0,4.9967976E0,0E0,4.055118E1,5.198822E-1,0E0,1.1118717E0,5.9692383E-2,2.0142132E1,3.3785858E0,0E0,0E0,0E0,0E0,0E0,0E0,0E0,0E0,0E0,0E0,0E0,0E0,0E0,0E0,0E0,0E0,0E0,0E0,0E0,0E0,0E0,0E0,0E0],"parents":[2147483647,0,0,1,1,2,2,4,4,5,5,6,6,7,7,9,9,11,11,12,12,13,13,14,14,15,15,16,16,17,17,18,18,19,19,20,20,21,21,22,22,23,23,24,24,27,27,29,29,30,30,32,32,33,33,34,34,35,35],"right_children":[2,4,6,-1,8,10,12,14,-1,16,-1,18,20,22,24,26,28,30,32,34,36,38,40,42,44,-1,-1,46,-1,48,50,-1,52,54,56,58,-1,-1,-1,-1,-1,-1,-1,-1,-1,-1,-1,-1,-1,-1,-1,-1,-1,-1,-1,-1,-1,-1,-1],"split_conditions":[5E-1,-5E-1,-5E-1,-3.6843887E-1,0E0,0E0,-5E-1,-5E-1,3.6569282E-1,-5E-1,2.9569027E-1,-5E-1,5E-1,0E0,0E0,5E-1,0E0,5E-1,5E-1,-5E-1,0E0,5E-1,0E0,0E0,-5E-1,4.617543E-2,2.3546265E-1,5E-1,-3.6141825E-1,0E0,0E0,3.8328043E-1,5E-1,0E0,0E0,5E-1,3.5868767E-1,-3.8866195E-1,-2.0805992E-1,1.1299909E-1,-1.984718E-1,-4.0195572E-1,-1.2985536E-1,-1.4378765E-1,1.3274905E-1,-3.2948485E-1,1.3643941E-1,-3.2842137E-2,4.148998E-1,2.3154254E-1,3.6031944E-1,1.5108404E-1,3.392656E-1,2.631708E-1,3.6691892E-1,-1.7868204E-2,2.3760049E-1,2.1291216E-1,3.4140682E-1],"split_indices":[7,13,13,0,5,5,14,14,0,28,0,15,25,0,12,6,22,13,18,25,0,28,9,27,6,0,0,14,0,5,3,0,25,4,24,28,0,0,0,0,0,0,0,0,0,0,0,0,0,0,0,0,0,0,0,0,0,0,0],"split_type":[0,0,0,0,0,0,0,0,0,0,0,0,0,0,0,0,0,0,0,0,0,0,0,0,0,0,0,0,0,0,0,0,0,0,0,0,0,0,0,0,0,0,0,0,0,0,0,0,0,0,0,0,0,0,0,0,0,0,0],"sum_hessian":[1.9023346E3,8.118146E2,1.09052E3,4.5981226E2,3.5200232E2,4.371246E1,1.0468075E3,3.347338E2,1.7268541E1,4.0539017E1,3.1734464E0,3.2568173E2,7.211258E2,1.6257822E2,1.7215558E2,2.679223E0,3.785979E1,2.3749626E2,8.8185486E1,2.4781436E2,4.733114E2,6.161112E1,1.00967094E2,6.1959892E1,1.1019568E2,1.4348472E0,1.2443758E0,6.6440105E0,3.1215782E1,1.7143062E2,6.6065636E1,7.1438965E1,1.674652E1,1.1351476E2,1.3429959E2,1.2763317E2,3.4567825E2,2.9822838E1,3.178828E1,6.4369607E0,9.4530136E1,1.2992078E1,4.8967815E1,2.9348877E1,8.08468E1,3.7110107E0,2.9329996E0,1.5175981E2,1.9670815E1,1.0880247E1,5.518539E1,7.9733896E0,8.7731285E0,1.2954657E1,1.00560104E2,3.8818943E1,9.548065E1,3.1313282E1,9.6319885E1],"tree_param":{"num_deleted":"0","num_feature":"30","num_nodes":"59","size_leaf_vector":"0"}},{"base_weights":[1.06789194E-1,-7.34225E-1,7.282076E-1,-1.1564435E0,-2.6636288E-1,-7.1615785E-1,7.871382E-1,-3.3131814E-1,1.121106E0,-8.672021E-1,8.8728327E-1,6.349527E-1,1.1226588E0,-6.436592E-1,-9.167344E-2,5.0669783E-1,-9.9348664E-1,4.4005916E-1,1.1132473E0,-1.0312983E0,2.1599947E-1,-2.6837957E-1,9.2805654E-1,1.2760028E-1,7.008097E-1,-3.5638842E-1,-1.1234039E0,3.15953E-1,1.2065464E0,7.8616744E-1,1.2036921E0,-1.1178557E0,3.4269518E-1,4.2349237E-1,-1.2231735E0,-9.1273415E-1,-1.2682381E-1,-7.10373E-1,1.2524884E0,9.0279356E-2,-8.558011E-1,-7.592886E-2,5.829134E-1,2.594535E-1,1.1267267E0],"categories":[],"categories_nodes":[],"categories_segments":[],"categories_sizes":[],"default_left":[1,1,1,0,1,1,1,1,0,1,0,1,0,1,1,1,1,1,1,1,1,1,1,0,0,1,0,1,0,1,0,0,0,0,0,0,0,0,0,0,0,0,0,0,0],"id":4,"left_children":[1,3,5,-1,7,9,11,13,-1,15,-1,17,-1,19,21,23,25,27,29,31,33,35,37,-1,-1,39,-1,41,-1,43,-1,-1,-1,-1,-1,-1,-1,-1,-1,-1,-1,-1,-1,-1,-1],"loss_changes":[8.4139075E2,1.3484128E2,7.9361786E1,0E0,2.9737091E1,9.685503E0,4.472888E1,2.3297295E1,0E0,6.4286003E0,0E0,5.6795822E1,0E0,4.531151E1,3.2275166E1,1.7085612E-1,2.2162876E0,4.1310745E1,4.2976074E0,1.1494385E1,1.3321978E1,1.3772044E1,1.4962389E1,0E0,0E0,1.5984653E0,0E0,3.9648205E1,0E0,7.1126747E0,0E0,0E0,0E0,0E0,0E0,0E0,0E0,0E0,0E0,0E0,0E0,0E0,0E0,0E0,0E0],"parents":[2147483647,0,0,1,1,2,2,4,4,5,5,6,6,7,7,9,9,11,11,13,13,14,14,15,15,16,16,17,17,18,18,19,19,20,20,21,21,22,22,25,25,27,27,29,29],"right_children":[2,4,6,-1,8,10,12,14,-1,16,-1,18,-1,20,22,24,26,28,30,32,34,36,38,-1,-1,40,-1,42,-1,44,-1,-1,-1,-1,-1,-1,-1,-1,-1,-1,-1,-1,-1,-1,-1],"split_conditions":[5E-1,-5E-1,-5E-1,-3.4693307E-1,0E0,0E0,5E-1,5E-1,3.363318E-1,-5E-1,2.66185E-1,-5E-1,3.3679765E-1,5E-1,-5E-1,5E-1,0E0,0E0,0E0,5E-1,-5E-1,0E0,0E0,3.8280085E-2,2.1024293E-1,0E0,-3.3702117E-1,-5E-1,3.6196393E-1,5E-1,3.6110765E-1,-3.353567E-1,1.0280856E-1,1.2704772E-1,-3.6695206E-1,-2.7382025E-1,-3.8047146E-2,-2.131119E-1,3.7574652E-1,2.7083809E-2,-2.5674033E-1,-2.2778658E-2,1.7487402E-1,7.783605E-2,3.3801803E-1],"split_indices":[7,13,13,0,5,5,13,25,0,28,0,15,0,6,15,6,16,5,24,14,7,27,27,0,0,19,0,14,0,25,0,0,0,0,0,0,0,0,0,0,0,0,0,0,0],"split_type":[0,0,0,0,0,0,0,0,0,0,0,0,0,0,0,0,0,0,0,0,0,0,0,0,0,0,0,0,0,0,0,0,0,0,0,0,0,0,0,0,0,0,0,0,0],"sum_hessian":[1.6079193E3,6.831616E2,9.247576E2,3.5832355E2,3.2483807E2,3.5814194E1,8.889434E2,3.1103784E2,1.3800236E1,3.315057E1,2.6636238E0,6.1354443E2,2.7539905E2,1.343052E2,1.7673264E2,2.5370154E0,3.0613554E1,4.3728235E2,1.7626207E2,9.24278E1,4.1877403E1,1.5125832E2,2.5474314E1,1.4203833E0,1.116632E0,5.819356E0,2.4794199E1,3.775615E2,5.972084E1,4.028173E1,1.3598033E2,8.712558E1,5.3022285E0,3.7217327E1,4.660073E0,2.6262926E1,1.2499539E2,4.013905E0,2.146041E1,3.5043461E0,2.3150096E0,1.5327644E2,2.2428505E2,1.6509596E1,2.3772135E1],"tree_param":{"num_deleted":"0","num_feature":"30","num_nodes":"45","size_leaf_vector":"0"}},{"base_weights":[9.07452E-2,-6.393613E-1,6.2395823E-1,-1.1088321E0,-2.093203E-1,3.0260837E-1,8.407161E-1,-5.029484E-1,2.2707382E-2,8.8566047E-1,1.6798364E-2,5.700365E-1,9.792171E-1,-8.0059505E-1,-3.2499585E-1,1.1269511E-1,-9.1084135E-1,-5.026433E-1,9.9016154E-1,-3.528793E-1,4.0544912E-1,8.664662E-2,8.154437E-1,7.6909566E-1,1.057543E0,-1.1578836E0,-4.7597224E-1,-6.4619E-1,-1.3434413E-1,-4.123249E-2,7.446643E-1,1.11851E0,-1.4099363E0,-9.4126475E-1,5.448371E-1,4.6713382E-1,1.028513E0,-4.9721333E-1,1.2100521E0,1.011982E0,2.7248442E-1,-3.1739953E-1,6.2832975E-1,2.5205818E-1,8.992351E-1,-5.599811E-1,8.205071E-1,-2.1416935E-1,-9.4905764E-1,-1.1311826E0,-1.7481776E-1,1.6297504E0,-2.5361553E-1,-1.9272245E-1,5.154117E-1,-9.7763366E-1,8.7574804E-1,-6.114149E-1,8.5385853E-1,-5.828393E-1,9.444237E-1,5.517549E-1,1.2662953E0,-1.1432639E0,3.616548E-1,-1.9204856E0,-3.0848251E-3,9.3646467E-1,4.79539E-2,-4.2962193E-1,9.8291606E-1,1.159465E0,7.628571E-1,-9.464853E-1,-3.0251868E-2,3.9633453E-1,9.671181E-1],"categories":[],"categories_nodes":[],"categories_segments":[],"categories_sizes":[],"default_left":[1,1,1,0,1,1,1,1,1,1,1,1,1,1,1,1,1,1,1,1,1,1,1,1,0,0,1,1,1,1,1,0,0,0,0,1,0,1,0,1,1,1,1,1,1,1,1,0,0,0,0,0,0,0,0,0,0,0,0,0,0,0,0,0,0,0,0,0,0,0,0,0,0,0,0,0,0],"id":5,"left_children":[1,3,5,-1,7,9,11,13,15,17,19,21,23,25,27,29,31,33,35,37,39,41,43,45,-1,-1,47,49,51,53,55,-1,-1,-1,-1,57,-1,59,-1,61,63,65,67,69,71,73,75,-1,-1,-1,-1,-1,-1,-1,-1,-1,-1,-1,-1,-1,-1,-1,-1,-1,-1,-1,-1,-1,-1,-1,-1,-1,-1,-1,-1,-1,-1],"loss_changes":[5.3294476E2,1.1643471E2,5.484842E1,0E0,2.0643332E1,5.3347538E1,1.7131561E1,6.8223E0,1.4393825E1,1.577697E1,3.1163315E1,1.9160004E1,4.300934E0,5.1724815E0,5.1407385E0,1.5210903E1,1.6836994E1,4.2048616E0,1.4909439E0,2.5683918E1,8.250044E0,1.2391523E1,4.843544E0,6.4757843E0,0E0,0E0,3.209453E0,7.01151E0,1.1950325E1,1.0760971E1,7.7683926E0,0E0,0E0,0E0,0E0,4.08675E0,0E0,1.3202822E1,0E0,1.4829578E0,1.1532553E1,1.6405731E1,4.2712564E0,8.042563E0,2.4198914E0,7.644185E-1,4.913578E0,0E0,0E0,0E0,0E0,0E0,0E0,0E0,0E0,0E0,0E0,0E0,0E0,0E0,0E0,0E0,0E0,0E0,0E0,0E0,0E0,0E0,0E0,0E0,0E0,0E0,0E0,0E0,0E0,0E0,0E0],"parents":[2147483647,0,0,1,1,2,2,4,4,5,5,6,6,7,7,8,8,9,9,10,10,11,11,12,12,13,13,14,14,15,15,16,16,17,17,18,18,19,19,20,20,21,21,22,22,23,23,26,26,27,27,28,28,29,29,30,30,35,35,37,37,39,39,40,40,41,41,42,42,43,43,44,44,45,45,46,46],"right_children":[2,4,6,-1,8,10,12,14,16,18,20,22,24,26,28,30,32,34,36,38,40,42,44,46,-1,-1,48,50,52,54,56,-1,-1,-1,-1,58,-1,60,-1,62,64,66,68,70,72,74,76,-1,-1,-1,-1,-1,-1,-1,-1,-1,-1,-1,-1,-1,-1,-1,-1,-1,-1,-1,-1,-1,-1,-1,-1,-1,-1,-1,-1,-1,-1],"split_conditions":[5E-1,-5E-1,5E-1,-3.3264965E-1,-5E-1,-5E-1,-5E-1,0E0,-5E-1,-5E-1,5E-1,0E0,0E0,5E-1,0E0,5E-1,-5E-1,0E0,0E0,0E0,0E0,5E-1,0E0,-5E-1,3.1726292E-1,-3.473651E-1,0E0,5E-1,0E0,-5E-1,0E0,3.3555302E-1,-4.229809E-1,-2.8237945E-1,1.6345114E-1,0E0,3.085539E-1,5E-1,3.6301565E-1,0E0,0E0,0E0,0E0,5E-1,0E0,-5E-1,5E-1,-6.425081E-2,-2.847173E-1,-3.3935478E-1,-5.244533E-2,4.8892513E-1,-7.608466E-2,-5.781674E-2,1.5462351E-1,-2.932901E-1,2.6272443E-1,-1.8342447E-1,2.5615758E-1,-1.748518E-1,2.833271E-1,1.6552648E-1,3.7988862E-1,-3.429792E-1,1.0849644E-1,-5.761457E-1,-9.2544756E-4,2.809394E-1,1.4386171E-2,-1.2888658E-1,2.9487482E-1,3.478395E-1,2.2885713E-1,-2.839456E-1,-9.075561E-3,1.18900366E-1,2.9013544E-1],"split_indices":[7,13,25,0,14,25,14,0,7,13,6,12,0,28,24,13,28,12,27,5,9,28,27,13,0,0,12,25,9,15,19,0,0,0,0,4,0,13,0,16,29,0,24,6,9,6,28,0,0,0,0,0,0,0,0,0,0,0,0,0,0,0,0,0,0,0,0,0,0,0,0,0,0,0,0,0,0],"split_type":[0,0,0,0,0,0,0,0,0,0,0,0,0,0,0,0,0,0,0,0,0,0,0,0,0,0,0,0,0,0,0,0,0,0,0,0,0,0,0,0,0,0,0,0,0,0,0,0,0,0,0,0,0,0,0,0,0,0,0,0,0,0,0,0,0,0,0,0,0,0,0,0,0,0,0,0,0],"sum_hessian":[1.3669492E3,5.768683E2,7.9008093E2,2.7503613E2,3.0183218E2,3.1922162E2,4.708593E2,1.3271516E2,1.69117E2,1.0431677E2,2.1490486E2,1.6110983E2,3.0974948E2,4.83482E1,8.436697E1,1.5505048E2,1.4066525E1,7.0357966E0,9.7280975E1,1.1018803E2,1.04716835E2,5.4705994E1,1.0640384E2,8.704818E1,2.2270131E2,2.1794132E1,2.655407E1,3.053491E1,5.3832054E1,1.254336E2,2.9616882E1,2.5316403E0,1.1534884E1,5.030661E0,2.0051355E0,7.5463333E0,8.973464E1,1.0149683E2,8.691189E0,1.7639849E1,8.707699E1,3.1570978E1,2.3135017E1,1.4295279E1,9.210856E1,2.8734086E0,8.417477E1,1.8029404E1,8.524666E0,1.43601055E1,1.6174805E1,2.607112E0,5.122494E1,9.9113716E1,2.6319887E1,1.6379473E0,2.7978933E1,1.8383348E0,5.7079983E0,9.636873E1,5.128108E0,7.406323E0,1.0233527E1,4.4591074E0,8.261788E1,4.33767E0,2.7233309E1,1.4711039E1,8.423978E0,7.6097445E0,6.6855345E0,2.9092957E1,6.3015606E1,1.206431E0,1.6669775E0,2.2572285E1,6.160248E1],"tree_param":{"num_deleted":"0","num_feature":"30","num_nodes":"77","size_leaf_vector":"0"}},{"base_weights":[7.8333154E-2,-1.0302991E0,3.5860753E-1,-1.047974E0,7.476E-1,-1.646608E-1,5.8553934E-1,-1.0757793E0,-7.780889E-1,-2.1192677E-1,1.0350058E0,4.2983297E-1,1.0077269E0,3.810579E-1,-9.039468E-1,-7.5606644E-2,-5.998965E-1,2.4474752E-1,9.90111E-1,7.384122E-1,1.0384152E0,-1.0711501E0,-3.1271583E-1,-6.9235647E-1,8.254917E-2,-9.248312E-1,2.3544596E-1,1.4109407E-1,1.0994294E0,6.081796E-1,1.1127146E0,-2.1103542E-1,8.510291E-1,3.3620048E-1,-8.5518104E-1,7.731707E-1,-9.2020786E-1,-3.039704E-1,2.4651124E-1,-1.3210169E0,-4.6574992E-1,-1.0813868E0,5.783386E-1,-5.6853253E-2,5.3333354E-1,1.6152985E-1,1.0264103E0,9.6860695E-1,3.3925778E-1],"categories":[],"categories_nodes":[],"categories_segments":[],"categories_sizes":[],"default_left":[1,1,1,1,0,1,1,0,1,1,0,1,1,0,1,1,1,1,1,1,0,0,1,1,1,1,1,1,0,1,0,0,1,0,0,0,0,0,0,0,0,0,0,0,0,0,0,0,0],"id":6,"left_children":[1,3,5,7,-1,9,11,-1,13,15,-1,17,19,-1,21,23,25,27,29,31,-1,-1,33,35,37,39,41,43,-1,45,-1,-1,47,-1,-1,-1,-1,-1,-1,-1,-1,-1,-1,-1,-1,-1,-1,-1,-1],"loss_changes":[3.6407898E2,8.214218E0,1.11132126E2,9.230652E-1,0E0,1.6302351E1,4.245607E1,0E0,4.0677977E0,1.443077E1,0E0,4.936608E1,6.7996216E-1,0E0,1.9702339E0,1.9925491E1,1.9495787E1,3.181944E1,4.8704224E0,2.4642859E0,0E0,0E0,2.5943143E0,1.4628965E1,1.0405623E1,8.721867E0,9.966328E0,2.5111586E1,0E0,5.623641E0,0E0,0E0,8.32757E-1,0E0,0E0,0E0,0E0,0E0,0E0,0E0,0E0,0E0,0E0,0E0,0E0,0E0,0E0,0E0,0E0],"parents":[2147483647,0,0,1,1,2,2,3,3,5,5,6,6,8,8,9,9,11,11,12,12,14,14,15,15,16,16,17,17,18,18,19,19,22,22,23,23,24,24,25,25,26,26,27,27,29,29,32,32],"right_children":[2,4,6,8,-1,10,12,-1,14,16,-1,18,20,-1,22,24,26,28,30,32,-1,-1,34,36,38,40,42,44,-1,46,-1,-1,48,-1,-1,-1,-1,-1,-1,-1,-1,-1,-1,-1,-1,-1,-1,-1,-1],"split_conditions":[-5E-1,0E0,5E-1,5E-1,2.2428001E-1,0E0,5E-1,-3.2273382E-1,-5E-1,0E0,3.1050175E-1,-5E-1,0E0,1.1431737E-1,5E-1,0E0,5E-1,0E0,0E0,0E0,3.1152457E-1,-3.2134503E-1,0E0,0E0,0E0,5E-1,0E0,5E-1,3.2982883E-1,5E-1,3.338144E-1,-6.331063E-2,0E0,1.0086015E-1,-2.5655434E-1,2.3195122E-1,-2.7606237E-1,-9.119112E-2,7.3953375E-2,-3.9630508E-1,-1.3972498E-1,-3.2441604E-1,1.735016E-1,-1.7055977E-2,1.6000007E-1,4.845896E-2,3.079231E-1,2.905821E-1,1.0177734E-1],"split_indices":[13,5,7,7,0,5,13,0,28,26,0,15,27,0,14,27,6,5,24,10,0,0,19,11,24,25,12,28,0,25,0,0,8,0,0,0,0,0,0,0,0,0,0,0,0,0,0,0,0],"split_type":[0,0,0,0,0,0,0,0,0,0,0,0,0,0,0,0,0,0,0,0,0,0,0,0,0,0,0,0,0,0,0,0,0,0,0,0,0,0,0,0,0,0,0,0,0,0,0,0,0],"sum_hessian":[1.1695332E3,2.354659E2,9.340673E2,2.3355458E2,1.9113144E0,2.8263376E2,6.514336E2,2.0903262E2,2.4521967E1,2.7271243E2,9.921326E0,4.7738718E2,1.7404639E2,2.203169E0,2.2318798E1,2.026889E2,7.002352E1,3.599245E2,1.17462685E2,2.0367435E1,1.5367896E2,1.6765654E1,5.5531445E0,4.06788E1,1.6201012E2,5.033636E1,1.9687159E1,3.2203418E2,3.7890327E1,2.9992254E1,8.747043E1,2.067011E0,1.8300425E1,2.7016137E0,2.851531E0,5.1514783E0,3.5527317E1,4.80007E1,1.14009415E2,2.6011229E1,2.4325132E1,3.6223388E0,1.606482E1,2.1459291E2,1.0744126E2,1.5173708E1,1.4818546E1,1.415557E1,4.144854E0],"tree_param":{"num_deleted":"0","num_feature":"30","num_nodes":"49","size_leaf_vector":"0"}},{"base_weights":[6.494123E-2,-9.987082E-1,2.9255584E-1,-1.0176353E0,6.8444115E-1,-1.2961785E-1,4.9045715E-1,-1.0519385E0,-7.10508E-1,-1.6614406E-1,9.7725666E-1,3.4500313E-1,9.543145E-1,3.1473866E-1,-8.405342E-1,-9.3138225E-2,-7.822789E-1,1.8674429E-1,9.203922E-1,6.537389E-1,9.919457E-1,-1.0243478E0,-2.7507535E-1,-5.7967997E-1,1.9122014E-4,5.8852726E-1,-1.101911E0,1.0344901E-1,1.0576999E0,5.1492155E-1,1.0701042E0,3.7059944E-2,8.590854E-1,8.33895E-1,1.0479866E0,2.6950613E-1,-7.8765744E-1,3.078234E-1,-8.0122447E-1,-3.8514227E-1,1.681452E-1,8.534671E-1,3.559914E-2,-7.5305915E-1,-1.3068188E0,-5.8851294E-2,5.1657665E-1,1.1788302E-1,9.841603E-1,-8.722842E-1,7.838517E-1,1.0699564E-1,9.158855E-1,2.1711415E-1,9.7450405E-1],"categories":[],"categories_nodes":[],"categories_segments":[],"categories_sizes":[],"default_left":[1,1,1,1,0,1,1,0,1,1,0,1,1,0,1,1,1,1,1,1,1,0,1,1,1,1,1,1,0,1,0,1,1,1,0,0,0,0,0,0,0,0,0,0,0,0,0,0,0,0,0,0,0,0,0],"id":7,"left_children":[1,3,5,7,-1,9,11,-1,13,15,-1,17,19,-1,21,23,25,27,29,31,33,-1,35,37,39,41,43,45,-1,47,-1,49,51,53,-1,-1,-1,-1,-1,-1,-1,-1,-1,-1,-1,-1,-1,-1,-1,-1,-1,-1,-1,-1,-1],"loss_changes":[2.4786598E2,6.446213E0,7.0504974E1,1.1371613E0,0E0,1.1073505E1,3.8414658E1,0E0,3.0710611E0,1.171728E1,0E0,3.9778515E1,8.956604E-1,0E0,1.6884556E0,1.0692898E1,1.2755676E1,2.4943733E1,5.1784973E0,2.2630792E0,1.8358612E-1,0E0,1.8919837E0,7.698657E0,1.29164295E1,8.304994E-1,6.425152E-1,2.1238785E1,0E0,4.984953E0,0E0,4.4677763E0,4.8086166E-1,2.9233131E0,0E0,0E0,0E0,0E0,0E0,0E0,0E0,0E0,0E0,0E0,0E0,0E0,0E0,0E0,0E0,0E0,0E0,0E0,0E0,0E0,0E0],"parents":[2147483647,0,0,1,1,2,2,3,3,5,5,6,6,8,8,9,9,11,11,12,12,14,14,15,15,16,16,17,17,18,18,19,19,20,20,22,22,23,23,24,24,25,25,26,26,27,27,29,29,31,31,32,32,33,33],"right_children":[2,4,6,8,-1,10,12,-1,14,16,-1,18,20,-1,22,24,26,28,30,32,34,-1,36,38,40,42,44,46,-1,48,-1,50,52,54,-1,-1,-1,-1,-1,-1,-1,-1,-1,-1,-1,-1,-1,-1,-1,-1,-1,-1,-1,-1,-1],"split_conditions":[-5E-1,0E0,5E-1,5E-1,2.0533235E-1,0E0,5E-1,-3.1558156E-1,-5E-1,5E-1,2.93177E-1,-5E-1,0E0,9.44216E-2,5E-1,0E0,0E0,0E0,0E0,-5E-1,0E0,-3.0730435E-1,0E0,0E0,0E0,0E0,0E0,0E0,3.1730998E-1,5E-1,3.2103127E-1,0E0,0E0,5E-1,3.14396E-1,8.085184E-2,-2.3629723E-1,9.234702E-2,-2.4036735E-1,-1.1554269E-1,5.044356E-2,2.5604016E-1,1.0679742E-2,-2.2591776E-1,-3.9204568E-1,-1.765539E-2,1.54973E-1,3.5364907E-2,2.952481E-1,-2.6168525E-1,2.3515551E-1,3.2098696E-2,2.7476567E-1,6.513425E-2,2.9235122E-1],"split_indices":[13,5,7,7,0,5,13,0,28,18,0,15,27,0,14,27,17,5,24,6,0,0,22,11,0,26,26,26,0,25,0,12,22,28,0,0,0,0,0,0,0,0,0,0,0,0,0,0,0,0,0,0,0,0,0],"split_type":[0,0,0,0,0,0,0,0,0,0,0,0,0,0,0,0,0,0,0,0,0,0,0,0,0,0,0,0,0,0,0,0,0,0,0,0,0,0,0,0,0,0,0,0,0,0,0,0,0,0,0,0,0,0,0],"sum_hessian":[1.02160065E3,1.7948315E2,8.421175E2,1.778783E2,1.6048595E0,2.6887784E2,5.732396E2,1.578256E2,2.0052685E1,2.6111124E2,7.7666173E0,4.377241E2,1.3551553E2,2.0970478E0,1.7955637E1,2.3447897E2,2.6632256E1,3.443393E2,9.338481E1,1.7122604E1,1.1839293E2,1.2938267E1,5.017371E0,3.6900337E1,1.9757864E2,4.8766217E0,2.1755634E1,3.153035E2,2.903579E1,2.6379532E1,6.700528E1,4.5722094E0,1.2550395E1,3.5147533E1,8.32454E1,2.662682E0,2.3546891E0,7.2934523E0,2.9606884E1,5.958373E1,1.379949E2,2.9294243E0,1.9471976E0,9.780177E0,1.1975457E1,2.2698735E2,8.831614E1,1.4966824E1,1.1412707E1,1.9859457E0,2.586264E0,1.0837812E0,1.1466614E1,6.997429E0,2.8150105E1],"tree_param":{"num_deleted":"0","num_feature":"30","num_nodes":"55","size_leaf_vector":"0"}},{"base_weights":[5.4283224E-2,-9.7114605E-1,2.3692943E-1,-9.916817E-1,6.277087E-1,1.4964578E-1,1.0518712E0,-1.0340279E0,-6.466813E-1,-4.7578037E-2,4.5123428E-1,-1.0361956E0,-2.1724553E-1,-4.1704103E-1,1.9561909E-1,3.6267377E-2,5.863467E-1,7.6301396E-1,-4.954111E-1,-6.2214774E-1,-3.2298762E-2,-1.6387603E-1,4.816852E-1,-3.7812647E-1,4.374625E-1,2.708345E-1,9.320937E-1,3.3445367E-1,-8.887837E-1,5.6865174E-1,-6.893089E-1,9.305462E-1,-2.3599225E-1,-4.6053457E-1,2.5946563E-1,-1.0951178E-2,6.5996295E-1,-1.4569482E0,-1.2655494E-1,1.1757475E0,-5.1592905E-2,7.966615E-1,7.0041105E-2,1.5739144E-1,9.8788893E-1],"categories":[],"categories_nodes":[],"categories_segments":[],"categories_sizes":[],"default_left":[1,1,1,1,0,1,0,0,1,1,1,0,1,1,1,1,1,0,1,1,1,1,1,1,1,1,1,0,0,0,0,0,0,0,0,0,0,0,0,0,0,0,0,0,0],"id":8,"left_children":[1,3,5,7,-1,9,-1,-1,11,13,15,-1,17,19,21,23,25,-1,27,29,31,33,35,37,39,41,43,-1,-1,-1,-1,-1,-1,-1,-1,-1,-1,-1,-1,-1,-1,-1,-1,-1,-1],"loss_changes":[1.7039215E2,5.138962E0,5.475493E1,1.3211212E0,0E0,4.1566746E1,0E0,0E0,2.7120833E0,3.810786E1,1.5467907E1,0E0,3.000318E0,1.3262033E1,2.6395065E1,1.1623915E1,2.24747E1,0E0,2.9406743E0,9.167778E0,1.1905109E1,1.4454165E1,1.2544834E1,9.162596E0,1.287201E1,1.1594392E1,4.1236343E0,0E0,0E0,0E0,0E0,0E0,0E0,0E0,0E0,0E0,0E0,0E0,0E0,0E0,0E0,0E0,0E0,0E0,0E0],"parents":[2147483647,0,0,1,1,2,2,3,3,5,5,8,8,9,9,10,10,12,12,13,13,14,14,15,15,16,16,18,18,19,19,20,20,21,21,22,22,23,23,24,24,25,25,26,26],"right_children":[2,4,6,8,-1,10,-1,-1,12,14,16,-1,18,20,22,24,26,-1,28,30,32,34,36,38,40,42,44,-1,-1,-1,-1,-1,-1,-1,-1,-1,-1,-1,-1,-1,-1,-1,-1,-1,-1],"split_conditions":[-5E-1,0E0,0E0,5E-1,1.883126E-1,5E-1,3.1556135E-1,-3.1020838E-1,0E0,5E-1,-5E-1,-3.108587E-1,-5E-1,0E0,-5E-1,5E-1,5E-1,2.289042E-1,0E0,0E0,0E0,5E-1,0E0,0E0,0E0,-5E-1,0E0,1.00336105E-1,-2.6663512E-1,1.7059553E-1,-2.0679267E-1,2.7916387E-1,-7.079768E-2,-1.3816038E-1,7.7839695E-2,-3.2853535E-3,1.979889E-1,-4.3708447E-1,-3.7966482E-2,3.5272425E-1,-1.5477872E-2,2.3899846E-1,2.1012332E-2,4.7217436E-2,2.963667E-1],"split_indices":[13,5,5,7,0,6,0,0,12,25,7,0,28,23,14,28,25,0,19,2,21,28,0,24,8,25,22,0,0,0,0,0,0,0,0,0,0,0,0,0,0,0,0,0,0],"split_type":[0,0,0,0,0,0,0,0,0,0,0,0,0,0,0,0,0,0,0,0,0,0,0,0,0,0,0,0,0,0,0,0,0,0,0,0,0,0,0,0,0,0,0,0,0],"sum_hessian":[9.0754486E2,1.3655696E2,7.709879E2,1.3520021E2,1.3567502E0,6.974696E2,7.351828E1,1.1864078E2,1.6559443E1,4.2220856E2,2.7526105E2,7.9424334E0,8.617009E0,1.6731311E2,2.5489546E2,6.792215E1,2.0733891E2,1.5194443E0,7.0975647E0,1.0873125E2,5.858186E1,1.1314053E2,1.4175493E2,3.3439762E1,3.4482384E1,1.0934197E2,9.799694E1,2.330624E0,4.7669406E0,5.406386E0,1.0332486E2,9.606105E0,4.8975758E1,6.647208E1,4.6668457E1,3.791704E1,1.0383789E2,5.417283E0,2.802248E1,1.3180617E1,2.1301765E1,2.9395374E1,7.99466E1,6.8404202E0,9.115652E1],"tree_param":{"num_deleted":"0","num_feature":"30","num_nodes":"45","size_leaf_vector":"0"}},{"base_weights":[4.5272175E-2,-9.467025E-1,1.9063501E-1,-9.692947E-1,5.764451E-1,1.18360765E-1,1.0300901E0,-1.0198755E0,-5.901498E-1,1.3354591E-2,5.9868E-1,-9.8380303E-1,-1.8070327E-1,6.344171E-1,-4.7970142E-2,7.031508E-2,8.574748E-1,6.8945915E-1,-4.4142783E-1,9.146257E-1,-6.528029E-1,-5.698105E-1,1.0538943E-1,-5.1409274E-1,5.7664603E-1,4.260389E-1,1.0318227E0,2.7018774E-1,-8.3628595E-1,-3.2799035E-1,1.1453594E0,4.158889E-2,-1.4143851E0,-1.2319107E0,-5.627766E-2,-1.1231008E-1,3.2008076E-1,-1.1278594E0,3.486531E-1,1.1587566E0,-9.300772E-3,8.3243065E-2,9.414107E-1],"categories":[],"categories_nodes":[],"categories_segments":[],"categories_sizes":[],"default_left":[1,1,1,1,0,1,0,0,1,1,1,0,1,1,1,1,1,0,1,1,1,1,1,1,1,1,0,0,0,0,0,0,0,0,0,0,0,0,0,0,0,0,0],"id":9,"left_children":[1,3,5,7,-1,9,-1,-1,11,13,15,-1,17,19,21,23,25,-1,27,29,31,33,35,37,39,41,-1,-1,-1,-1,-1,-1,-1,-1,-1,-1,-1,-1,-1,-1,-1,-1,-1],"loss_changes":[1.180509E2,4.159645E0,4.3184254E1,1.3827438E0,0E0,3.319606E1,0E0,0E0,2.1680703E0,2.0644867E1,1.6085873E1,0E0,2.2007766E0,1.816687E1,3.9557796E1,1.210622E1,5.5155716E0,0E0,2.2045276E0,1.1964603E1,4.972598E0,3.8098587E1,1.7903324E1,1.0483672E1,7.465274E0,4.2480187E0,0E0,0E0,0E0,0E0,0E0,0E0,0E0,0E0,0E0,0E0,0E0,0E0,0E0,0E0,0E0,0E0,0E0],"parents":[2147483647,0,0,1,1,2,2,3,3,5,5,8,8,9,9,10,10,12,12,13,13,14,14,15,15,16,16,18,18,19,19,20,20,21,21,22,22,23,23,24,24,25,25],"right_children":[2,4,6,8,-1,10,-1,-1,12,14,16,-1,18,20,22,24,26,-1,28,30,32,34,36,38,40,42,-1,-1,-1,-1,-1,-1,-1,-1,-1,-1,-1,-1,-1,-1,-1,-1,-1],"split_conditions":[-5E-1,0E0,0E0,5E-1,1.7293353E-1,-5E-1,3.0902705E-1,-3.0596268E-1,0E0,0E0,5E-1,-2.9514092E-1,-5E-1,5E-1,0E0,5E-1,0E0,2.0683776E-1,0E0,0E0,-5E-1,5E-1,0E0,5E-1,0E0,5E-1,3.0954683E-1,8.105633E-2,-2.5088578E-1,-9.839711E-2,3.4360784E-1,1.2476668E-2,-4.2431554E-1,-3.6957324E-1,-1.6883299E-2,-3.3693027E-2,9.602423E-2,-3.383578E-1,1.0459594E-1,3.4762698E-1,-2.7902317E-3,2.4972921E-2,2.8242323E-1],"split_indices":[13,5,5,7,0,15,0,0,12,2,7,0,28,1,0,25,24,0,19,16,14,28,23,6,23,25,0,0,0,0,0,0,0,0,0,0,0,0,0,0,0,0,0],"split_type":[0,0,0,0,0,0,0,0,0,0,0,0,0,0,0,0,0,0,0,0,0,0,0,0,0,0,0,0,0,0,0,0,0,0,0,0,0,0,0,0,0,0,0],"sum_hessian":[8.164306E2,1.0364322E2,7.1278735E2,1.024867E2,1.156521E0,6.573341E2,5.5453247E1,8.893249E1,1.3554211E1,5.402531E2,1.1708097E2,6.195206E0,7.3590045E0,4.77116E1,4.9254153E2,3.891085E1,7.817011E1,1.3174956E0,6.0415087E0,3.9419926E1,8.291674E0,1.1125521E2,3.8128635E2,1.8055658E1,2.0855192E1,2.3488876E1,5.468124E1,2.268657E0,3.772852E0,6.107341E0,3.3312584E1,4.831669E0,3.460005E0,4.7986763E1,6.3268448E1,1.8955363E2,1.917327E2,1.0370606E1,7.685052E0,9.971448E0,1.0883745E1,1.4803774E1,8.685102E0],"tree_param":{"num_deleted":"0","num_feature":"30","num_nodes":"43","size_leaf_vector":"0"}},{"base_weights":[3.756993E-2,-9.2237765E-1,1.5182349E-1,-1.007937E0,-4.1557425E-1,9.309863E-2,1.0117071E0,-9.301851E-1,-5.0025117E-3,1.1283927E-2,5.2663636E-1,-3.0790976E-1,5.1304346E-1,-2.4017158E-1,1.6478504E-1,5.315056E-2,7.914052E-1,1.9410829E-1,-8.0082613E-1,5.994846E-1,1.5372996E-1,-1.2646109E0,-1.6009568E-1,6.786358E-1,5.773486E-2,2.4321151E-1,-1.0209007E0,3.529974E-1,1.0037724E0,3.6858863E-1,-8.910344E-3,-1.5851096E0,6.7870307E-1,-3.5656288E-1,1.18588015E-1,-1.4888665E-1,7.69246E-1,-2.4480917E-2,6.5765023E-1,-3.2302633E-2,8.8910556E-1,6.039808E-2,9.02954E-1],"categories":[],"categories_nodes":[],"categories_segments":[],"categories_sizes":[],"default_left":[1,1,1,0,1,1,0,0,1,1,1,1,1,1,1,1,1,1,0,0,0,1,1,1,1,1,0,1,0,0,0,0,0,0,0,0,0,0,0,0,0,0,0],"id":10,"left_children":[1,3,5,-1,7,9,-1,-1,11,13,15,17,19,21,23,25,27,29,-1,-1,-1,31,33,35,37,39,-1,41,-1,-1,-1,-1,-1,-1,-1,-1,-1,-1,-1,-1,-1,-1,-1],"loss_changes":[8.2259056E1,3.040413E0,3.3736202E1,0E0,2.7894626E0,2.2277119E1,0E0,0E0,1.4700054E0,2.047816E1,1.2458284E1,1.6156881E0,1.5309751E-2,1.6296204E1,1.8079967E1,7.7671947E0,5.593048E0,1.3535641E-1,0E0,0E0,0E0,1.0067095E1,1.0318527E1,4.3658504E0,1.3515391E1,5.7414837E0,0E0,3.5480907E0,0E0,0E0,0E0,0E0,0E0,0E0,0E0,0E0,0E0,0E0,0E0,0E0,0E0,0E0,0E0],"parents":[2147483647,0,0,1,1,2,2,4,4,5,5,8,8,9,9,10,10,11,11,12,12,13,13,14,14,15,15,16,16,17,17,21,21,22,22,23,23,24,24,25,25,27,27],"right_children":[2,4,6,-1,8,10,-1,-1,12,14,16,18,20,22,24,26,28,30,-1,-1,-1,32,34,36,38,40,-1,42,-1,-1,-1,-1,-1,-1,-1,-1,-1,-1,-1,-1,-1,-1,-1],"split_conditions":[-5E-1,5E-1,0E0,-3.023811E-1,0E0,-5E-1,3.0351213E-1,-2.7905554E-1,5E-1,0E0,5E-1,-5E-1,0E0,0E0,0E0,-5E-1,0E0,0E0,-2.4024785E-1,1.798454E-1,4.611899E-2,5E-1,5E-1,0E0,5E-1,5E-1,-3.0627024E-1,5E-1,3.0113173E-1,1.1057659E-1,-2.6731032E-3,-4.755329E-1,2.0361093E-1,-1.0696887E-1,3.5576407E-2,-4.4665996E-2,2.307738E-1,-7.3442752E-3,1.9729508E-1,-9.69079E-3,2.6673168E-1,1.8119425E-2,2.708862E-1],"split_indices":[13,7,5,0,12,15,0,0,6,12,7,6,0,19,21,7,24,29,0,0,0,13,28,11,13,6,0,25,0,0,0,0,0,0,0,0,0,0,0,0,0,0,0],"split_type":[0,0,0,0,0,0,0,0,0,0,0,0,0,0,0,0,0,0,0,0,0,0,0,0,0,0,0,0,0,0,0,0,0,0,0,0,0,0,0,0,0,0,0],"sum_hessian":[7.477321E2,7.877754E1,6.689545E2,6.655313E1,1.2224415E1,6.27227E2,4.1727547E1,4.8632417E0,7.3611736E0,5.285148E2,9.87122E1,4.9010863E0,2.4600873E0,2.0012253E2,3.2839227E2,3.583294E1,6.2879257E1,2.728455E0,2.1726313E0,1.444228E0,1.0158594E0,1.34361725E1,1.8668636E2,5.5697887E1,2.726944E2,3.1102663E1,4.730278E0,2.1388119E1,4.149114E1,1.0287637E0,1.6996914E0,1.1692181E1,1.7439922E0,1.09330666E2,7.735569E1,5.4333363E0,5.0264553E1,2.406707E2,3.2023678E1,2.2468452E1,8.63421E0,1.468495E1,6.703168E0],"tree_param":{"num_deleted":"0","num_feature":"30","num_nodes":"43","size_leaf_vector":"0"}},{"base_weights":[3.0713605E-2,-8.9205176E-1,1.1955564E-1,-9.970264E-1,-3.6022985E-1,7.265854E-2,9.9494886E-1,-8.7533665E-1,3.719036E-3,-3.8718832E-1,1.4506556E-1,6.2136674E-1,-1.9204794E-1,4.4812515E-1,-6.003169E-1,-7.914912E-2,2.8317687E-1,-6.9038063E-1,1.4301604E-1,7.786037E-1,-4.2623963E-2,-8.132743E-1,5.5753297E-1,-1.7163819E-2,-6.658553E-1,4.742023E-2,4.5501733E-1,-1.3058704E-1,4.2357513E-1,-2.813558E-1,9.9958634E-1,2.235038E-1,-4.3822998E-1,-6.933603E-1,-1.4354601E0,-8.306633E-1,8.908259E-1,-3.684731E-1,1.06204644E-1,2.0845942E-1,-9.8786575E-1,-2.5347114E-1,3.500185E-1,2.7028382E-1,6.725758E-1],"categories":[],"categories_nodes":[],"categories_segments":[],"categories_sizes":[],"default_left":[1,1,1,0,1,1,0,0,1,1,1,0,1,1,1,1,1,0,1,1,1,1,1,1,1,1,1,0,0,0,0,0,0,0,0,0,0,0,0,0,0,0,0,0,0],"id":11,"left_children":[1,3,5,-1,7,9,-1,-1,11,13,15,-1,17,19,21,23,25,-1,27,29,31,33,35,37,39,41,43,-1,-1,-1,-1,-1,-1,-1,-1,-1,-1,-1,-1,-1,-1,-1,-1,-1,-1],"loss_changes":[5.737679E1,3.0725517E0,2.6124464E1,0E0,2.1964667E0,2.0258457E1,0E0,0E0,1.0686392E0,1.5012202E1,1.6277779E1,0E0,1.2216971E0,2.8562853E0,1.6827425E1,7.293828E0,1.3147316E1,0E0,4.2759824E-1,2.729899E0,9.352532E-1,3.21986E0,5.7876015E0,7.957747E0,5.6024694E0,1.2667943E1,7.3699265E0,0E0,0E0,0E0,0E0,0E0,0E0,0E0,0E0,0E0,0E0,0E0,0E0,0E0,0E0,0E0,0E0,0E0,0E0],"parents":[2147483647,0,0,1,1,2,2,4,4,5,5,8,8,9,9,10,10,12,12,13,13,14,14,15,15,16,16,18,18,19,19,20,20,21,21,22,22,23,23,24,24,25,25,26,26],"right_children":[2,4,6,-1,8,10,-1,-1,12,14,16,-1,18,20,22,24,26,-1,28,30,32,34,36,38,40,42,44,-1,-1,-1,-1,-1,-1,-1,-1,-1,-1,-1,-1,-1,-1,-1,-1,-1,-1],"split_conditions":[-5E-1,5E-1,0E0,-2.9910794E-1,0E0,0E0,2.9848468E-1,-2.6260102E-1,-5E-1,0E0,5E-1,1.8641002E-1,5E-1,-5E-1,0E0,5E-1,-5E-1,-2.071142E-1,5E-1,5E-1,0E0,5E-1,5E-1,0E0,0E0,0E0,5E-1,-3.9176114E-2,1.2707254E-1,-8.440674E-2,2.9987592E-1,6.705114E-2,-1.31469E-1,-2.0800811E-1,-4.3063805E-1,-2.49199E-1,2.672478E-1,-1.1054194E-1,3.1861395E-2,6.253783E-2,-2.9635975E-1,-7.604134E-2,1.05005555E-1,8.1085145E-2,2.0177273E-1],"split_indices":[13,7,5,0,12,27,0,0,28,11,7,0,28,1,26,18,14,0,6,28,17,14,7,24,11,23,25,0,0,0,0,0,0,0,0,0,0,0,0,0,0,0,0,0,0],"split_type":[0,0,0,0,0,0,0,0,0,0,0,0,0,0,0,0,0,0,0,0,0,0,0,0,0,0,0,0,0,0,0,0,0,0,0,0,0,0,0,0,0,0,0,0,0],"sum_hessian":[6.9758374E2,6.0469654E1,6.371141E2,4.9770817E1,1.0698841E1,6.057457E2,3.136838E1,3.8478148E0,6.851026E0,8.181333E1,5.239324E2,1.1256312E0,5.7253947E0,1.6406973E1,6.540636E1,1.998751E2,3.2405725E2,1.8755258E0,3.849869E0,9.453959E0,6.953014E0,5.5496723E1,9.909632E0,1.8170708E2,1.8168036E1,1.3715851E2,1.8689874E2,2.2197254E0,1.6301436E0,1.5838249E0,7.8701344E0,4.4168158E0,2.536198E0,4.8301884E1,7.19484E0,1.6296587E0,8.279973E0,4.6709198E1,1.3499788E2,4.9851403E0,1.3182896E1,6.885463E1,6.830388E1,1.0228702E2,8.461173E1],"tree_param":{"num_deleted":"0","num_feature":"30","num_nodes":"45","size_leaf_vector":"0"}},{"base_weights":[2.3229243E-2,-8.6002636E-1,9.286651E-2,-9.861578E-1,-3.1399998E-1,5.5182196E-2,9.783773E-1,-8.198057E-1,9.695232E-3,-6.2222067E-2,2.5822186E-1,-3.9803073E-1,2.2736722E-1,-3.529746E-1,4.5417897E-2,1.3709824E-1,5.691792E-1,-2.5784063E-1,5.185216E-1,-1.051509E0,5.7429943E-2,8.602608E-2,-8.687097E-1,7.2385144E-1,4.4596463E-2,1.7365453E-1,8.132591E-1,-1.3740857E-1,-1.3727269E0,6.046049E-1,-2.7128965E-1,-1.3583896E-1,2.4896082E-1,-1.0192238E0,8.092878E-2,9.409846E-1,2.3727046E-1,-6.113294E-1,1.4127894E-1,-2.637707E-1,4.5051733E-1,8.9119023E-1,-2.3547016E-1],"categories":[],"categories_nodes":[],"categories_segments":[],"categories_sizes":[],"default_left":[1,1,1,0,1,1,0,0,1,1,1,0,1,1,1,1,1,0,0,1,1,1,1,1,1,1,1,0,0,0,0,0,0,0,0,0,0,0,0,0,0,0,0],"id":12,"left_children":[1,3,5,-1,7,9,-1,-1,11,13,15,-1,17,19,21,23,25,-1,-1,27,29,31,33,35,37,39,41,-1,-1,-1,-1,-1,-1,-1,-1,-1,-1,-1,-1,-1,-1,-1,-1],"loss_changes":[4.0086723E1,2.9707756E0,2.0094978E1,0E0,1.7115691E0,1.3847187E1,0E0,0E0,7.413192E-1,1.1547095E1,7.9359884E0,0E0,8.989942E-1,2.8631805E1,1.0089333E1,8.350384E0,5.5863914E0,0E0,0E0,1.0656616E1,1.162639E1,9.404401E0,1.7354965E0,1.9919548E0,8.61456E0,3.0147567E0,3.186161E0,0E0,0E0,0E0,0E0,0E0,0E0,0E0,0E0,0E0,0E0,0E0,0E0,0E0,0E0,0E0,0E0],"parents":[2147483647,0,0,1,1,2,2,4,4,5,5,8,8,9,9,10,10,12,12,13,13,14,14,15,15,16,16,19,19,20,20,21,21,22,22,23,23,24,24,25,25,26,26],"right_children":[2,4,6,-1,8,10,-1,-1,12,14,16,-1,18,20,22,24,26,-1,-1,28,30,32,34,36,38,40,42,-1,-1,-1,-1,-1,-1,-1,-1,-1,-1,-1,-1,-1,-1,-1,-1],"split_conditions":[-5E-1,5E-1,0E0,-2.9584736E-1,0E0,5E-1,2.935132E-1,-2.4594171E-1,-5E-1,0E0,0E0,-1.19409226E-1,0E0,5E-1,5E-1,-5E-1,0E0,-7.7352196E-2,1.5555649E-1,-5E-1,-5E-1,5E-1,-5E-1,-5E-1,0E0,5E-1,5E-1,-4.1222572E-2,-4.118181E-1,1.8138148E-1,-8.1386894E-2,-4.075169E-2,7.468825E-2,-3.0576715E-1,2.4278635E-2,2.822954E-1,7.118114E-2,-1.8339881E-1,4.2383682E-2,-7.9131216E-2,1.351552E-1,2.6735708E-1,-7.064105E-2],"split_indices":[13,7,5,0,12,6,0,0,14,0,26,0,3,28,18,25,0,0,0,6,6,25,15,15,27,7,18,0,0,0,0,0,0,0,0,0,0,0,0,0,0,0,0],"split_type":[0,0,0,0,0,0,0,0,0,0,0,0,0,0,0,0,0,0,0,0,0,0,0,0,0,0,0,0,0,0,0,0,0,0,0,0,0,0,0,0,0,0,0],"sum_hessian":[6.494386E2,4.6631416E1,6.028072E2,3.7226154E1,9.405261E0,5.7921985E2,2.3587305E1,3.0721214E0,6.3331394E0,3.674447E2,2.1177516E2,1.9158814E0,4.417258E0,9.8662506E1,2.687822E2,1.5344598E2,5.832917E1,1.6994873E0,2.7177706E0,3.5935642E1,6.2726864E1,2.5821735E2,1.0564865E1,1.9966988E1,1.33479E2,2.291215E1,3.541702E1,9.715549E0,2.6220093E1,2.3226158E1,3.9500706E1,1.0940669E2,1.4881065E2,9.056213E0,1.508652E0,1.316039E1,6.806598E0,1.6463322E1,1.1701568E2,8.899231E0,1.4012918E1,3.310705E1,2.309967E0],"tree_param":{"num_deleted":"0","num_feature":"30","num_nodes":"43","size_leaf_vector":"0"}},{"base_weights":[1.66631E-2,-8.230141E-1,7.0636846E-2,-9.7444624E-1,-2.7762178E-1,4.0884186E-2,9.6075654E-1,-7.6438856E-1,1.970104E-3,-1.9544628E-2,4.0721875E-1,-2.4490379E-1,3.9422667E-1,4.732073E-1,-6.0131524E-2,3.1009242E-2,6.717221E-1,1.4931712E-1,-6.901774E-1,7.5448316E-1,-5.1903063E-1,-1.4226171E0,-2.6319401E-2,-4.6654764E-1,4.1895226E-1,2.0070338E-1,9.682506E-1,2.628042E-1,-4.2915404E-2,-3.6514255E-1,1.0401131E0,3.6071483E-2,-1.076406E0,-1.6075027E0,-5.540209E-1,-3.3605364E-1,6.324081E-2,-9.7814196E-1,1.4113861E-1,9.646183E-1,-7.928767E-2,9.0374357E-1,-5.6840327E-2],"categories":[],"categories_nodes":[],"categories_segments":[],"categories_sizes":[],"default_left":[1,1,1,0,1,1,0,0,1,1,1,1,0,1,1,1,1,1,0,1,1,1,1,1,1,1,0,0,0,0,0,0,0,0,0,0,0,0,0,0,0,0,0],"id":13,"left_children":[1,3,5,-1,7,9,-1,-1,11,13,15,17,-1,19,21,23,25,27,-1,29,31,33,35,37,39,41,-1,-1,-1,-1,-1,-1,-1,-1,-1,-1,-1,-1,-1,-1,-1,-1,-1],"loss_changes":[2.8059786E1,2.8179855E0,1.5359837E1,0E0,1.2978426E0,1.2486673E1,0E0,0E0,7.790137E-1,9.724806E0,7.926385E0,9.705759E-1,0E0,1.0720409E1,2.0639345E1,6.761859E0,6.3486614E0,8.6400725E-2,0E0,9.731396E0,2.751144E0,8.5177994E-1,1.2198416E1,4.918557E0,5.4165287E0,3.5566854E0,0E0,0E0,0E0,0E0,0E0,0E0,0E0,0E0,0E0,0E0,0E0,0E0,0E0,0E0,0E0,0E0,0E0],"parents":[2147483647,0,0,1,1,2,2,4,4,5,5,8,8,9,9,10,10,11,11,13,13,14,14,15,15,16,16,17,17,19,19,20,20,21,21,22,22,23,23,24,24,25,25],"right_children":[2,4,6,-1,8,10,-1,-1,12,14,16,18,-1,20,22,24,26,28,-1,30,32,34,36,38,40,42,-1,-1,-1,-1,-1,-1,-1,-1,-1,-1,-1,-1,-1,-1,-1,-1,-1],"split_conditions":[-5E-1,5E-1,0E0,-2.9233387E-1,0E0,-5E-1,2.8822696E-1,-2.2931658E-1,5E-1,0E0,5E-1,-5E-1,1.18268006E-1,5E-1,0E0,5E-1,0E0,5E-1,-2.0705323E-1,0E0,-5E-1,0E0,0E0,5E-1,0E0,5E-1,2.904752E-1,7.884127E-2,-1.2874622E-2,-1.0954277E-1,3.1203395E-1,1.0821445E-2,-3.229218E-1,-4.8225084E-1,-1.6620627E-1,-1.0081609E-1,1.8972244E-2,-2.934426E-1,4.2341586E-2,2.893855E-1,-2.3786303E-2,2.7112308E-1,-1.70521E-2],"split_indices":[13,7,5,0,12,15,0,0,6,2,7,6,0,1,4,25,24,14,0,16,14,12,0,6,23,1,0,0,0,0,0,0,0,0,0,0,0,0,0,0,0,0,0],"split_type":[0,0,0,0,0,0,0,0,0,0,0,0,0,0,0,0,0,0,0,0,0,0,0,0,0,0,0,0,0,0,0,0,0,0,0,0,0,0,0,0,0,0,0],"sum_hessian":[6.168581E2,3.6395756E1,5.8046234E2,2.7870596E1,8.525161E0,5.626998E2,1.7762568E1,2.477651E0,6.04751E0,4.8383527E2,7.886453E1,3.9421191E0,2.1053913E0,3.6008537E1,4.4782672E2,3.301861E1,4.584592E1,2.443468E0,1.498651E0,2.8242168E1,7.7663684E0,9.849738E0,4.37977E2,1.4376889E1,1.864172E1,1.8359589E1,2.7486332E1,1.3055829E0,1.1378851E0,5.6838737E0,2.2558294E1,4.359716E0,3.4066525E0,7.419719E0,2.4300194E0,9.761924E1,3.4035776E2,7.474607E0,6.9022827E0,8.450637E0,1.0191083E1,4.2497034E0,1.4109885E1],"tree_param":{"num_deleted":"0","num_feature":"30","num_nodes":"43","size_leaf_vector":"0"}},{"base_weights":[1.3115758E-2,-7.8333294E-1,5.5175453E-2,-9.610511E-1,-2.4877945E-1,-1.1087305E-1,1.8320702E-1,-7.099647E-1,-4.767814E-3,4.8000863E-1,-1.8896128E-1,1.03275225E-1,6.147297E-1,-2.1560402E-1,3.225929E-1,-4.3182462E-1,7.822792E-1,-3.1077194E-1,1.2367343E-2,-9.5417984E-2,2.390427E-1,-1.1279874E-1,7.5520587E-1,-6.661099E-1,1.2424674E-1,-8.727764E-1,5.94582E-1,9.5575887E-1,1.6631031E-1,-9.624899E-1,-1.9321997E-1,-1.3856115E0,2.0552444E-1,-3.9440948E-1,1.9209452E-2,9.233167E-1,1.5145627E-1,-7.612903E-1,4.178697E-1,3.2026884E-1,8.411838E-1,3.6422327E-1,-1.5046331E-1,-1.0677058E0,-2.6877284E-1,1.1204157E0,5.003487E-1,-1.0482781E0,6.820111E-1,5.993466E-1,-1.2428946E0,-8.2364094E-1,-7.530442E-2,-6.91637E-1,-1.564645E0,2.598166E-1,-2.2898719E-1,-1.2564325E0,1.030486E-2,1.7629877E-1,-4.4506425E-1,9.707457E-1,2.737358E-1,-6.6296E-2,4.5097497E-1,-9.3722475E-1,-1.7033452E-1,-1.5423648E-1,5.882609E-1,6.5427583E-1,-3.4579134E-1,4.551296E-1,9.4882613E-1],"categories":[],"categories_nodes":[],"categories_segments":[],"categories_sizes":[],"default_left":[1,1,1,0,1,1,1,0,1,1,1,1,1,1,0,1,1,1,1,1,1,1,1,0,1,1,0,1,1,1,1,1,1,1,1,1,1,1,1,1,1,0,0,0,0,0,0,0,0,0,0,0,0,0,0,0,0,0,0,0,0,0,0,0,0,0,0,0,0,0,0,0,0],"id":14,"left_children":[1,3,5,-1,7,9,11,-1,13,15,17,19,21,23,-1,25,27,29,31,33,35,37,39,-1,41,43,-1,45,47,49,51,53,55,57,59,61,63,65,67,69,71,-1,-1,-1,-1,-1,-1,-1,-1,-1,-1,-1,-1,-1,-1,-1,-1,-1,-1,-1,-1,-1,-1,-1,-1,-1,-1,-1,-1,-1,-1,-1,-1],"loss_changes":[1.9802023E1,2.5778866E0,1.1950923E1,0E0,9.810473E-1,1.1392675E1,1.0879091E1,0E0,5.3389263E-1,8.296244E0,5.327265E0,7.2758093E0,5.1316757E0,8.010578E-1,0E0,4.0641785E0,2.1963596E0,1.0178048E1,2.2640123E1,3.7726345E0,9.450163E0,3.3676105E0,1.2831211E0,0E0,2.866558E-1,4.0584993E-1,0E0,7.132149E-1,4.507098E0,9.688301E0,8.550626E0,1.8256187E-1,1.7959774E0,1.0650504E1,5.9396744E0,2.8763103E-1,9.359791E0,2.9182863E-1,6.28735E-1,2.109947E0,9.831257E-1,0E0,0E0,0E0,0E0,0E0,0E0,0E0,0E0,0E0,0E0,0E0,0E0,0E0,0E0,0E0,0E0,0E0,0E0,0E0,0E0,0E0,0E0,0E0,0E0,0E0,0E0,0E0,0E0,0E0,0E0,0E0,0E0],"parents":[2147483647,0,0,1,1,2,2,4,4,5,5,6,6,8,8,9,9,10,10,11,11,12,12,13,13,15,15,16,16,17,17,18,18,19,19,20,20,21,21,22,22,24,24,25,25,27,27,28,28,29,29,30,30,31,31,32,32,33,33,34,34,35,35,36,36,37,37,38,38,39,39,40,40],"right_children":[2,4,6,-1,8,10,12,-1,14,16,18,20,22,24,-1,26,28,30,32,34,36,38,40,-1,42,44,-1,46,48,50,52,54,56,58,60,62,64,66,68,70,72,-1,-1,-1,-1,-1,-1,-1,-1,-1,-1,-1,-1,-1,-1,-1,-1,-1,-1,-1,-1,-1,-1,-1,-1,-1,-1,-1,-1,-1,-1,-1,-1],"split_conditions":[-5E-1,5E-1,-5E-1,-2.8831536E-1,0E0,0E0,5E-1,-2.1298942E-1,5E-1,0E0,5E-1,5E-1,0E0,0E0,9.677788E-2,0E0,5E-1,0E0,0E0,0E0,-5E-1,5E-1,-5E-1,-1.9983299E-1,0E0,5E-1,1.7837462E-1,0E0,0E0,-5E-1,0E0,0E0,5E-1,5E-1,0E0,5E-1,5E-1,5E-1,-5E-1,0E0,-5E-1,1.0926699E-1,-4.5138996E-2,-3.2031173E-1,-8.063185E-2,3.3612472E-1,1.5010461E-1,-3.1448343E-1,2.0460334E-1,1.7980398E-1,-3.7286842E-1,-2.4709229E-1,-2.2591326E-2,-2.074911E-1,-4.6939352E-1,7.794498E-2,-6.8696156E-2,-3.769298E-1,3.091458E-3,5.2889634E-2,-1.3351928E-1,2.912237E-1,8.212074E-2,-1.98888E-2,1.352925E-1,-2.8116745E-1,-5.110036E-2,-4.6270944E-2,1.7647827E-1,1.9628276E-1,-1.0373741E-1,1.3653888E-1,2.8464785E-1],"split_indices":[13,7,14,0,12,21,13,0,6,12,28,7,27,0,0,22,13,24,16,24,25,7,25,0,24,6,0,16,20,28,0,12,15,28,26,18,25,28,25,26,6,0,0,0,0,0,0,0,0,0,0,0,0,0,0,0,0,0,0,0,0,0,0,0,0,0,0,0,0,0,0,0,0],"split_type":[0,0,0,0,0,0,0,0,0,0,0,0,0,0,0,0,0,0,0,0,0,0,0,0,0,0,0,0,0,0,0,0,0,0,0,0,0,0,0,0,0,0,0,0,0,0,0,0,0,0,0,0,0,0,0,0,0,0,0,0,0,0,0,0,0,0,0,0,0,0,0,0,0],"sum_hessian":[5.888434E2,2.8652428E1,5.60191E2,2.0904606E1,7.7478223E0,2.4394473E2,3.1624625E2,2.0201533E0,5.7276692E0,2.7874634E1,2.1607008E2,2.678679E2,4.837836E1,3.691531E0,2.0361383E0,6.833128E0,2.1041506E1,1.3428157E2,8.178851E1,1.08856125E2,1.5901175E2,7.8613467E0,4.0517014E1,1.1745464E0,2.5169847E0,4.8844223E0,1.9487056E0,1.5987265E1,5.054242E0,1.9421175E1,1.148604E2,9.179339E0,7.260918E1,2.9491196E1,7.936493E1,1.6961021E1,1.4205072E2,3.342334E0,4.519013E0,7.467273E0,3.304974E1,1.1695036E0,1.3474811E0,3.1122844E0,1.772138E0,1.0669423E1,5.317841E0,1.1985855E0,3.8556566E0,2.7829401E0,1.6638235E1,1.7155521E1,9.770488E1,2.8797898E0,6.29955E0,6.4901764E1,7.7074156E0,8.749873E0,2.0741322E1,5.9763817E1,1.9601114E1,1.5346112E1,1.6149099E0,8.270341E1,5.9347317E1,2.1240366E0,1.2182976E0,1.0587981E0,3.4602146E0,4.9851027E0,2.4821703E0,8.345862E0,2.4703878E1],"tree_param":{"num_deleted":"0","num_feature":"30","num_nodes":"73","size_leaf_vector":"0"}},{"base_weights":[8.2650175E-3,-7.3780906E-1,4.1452676E-2,-9.4515365E-1,-2.231656E-1,1.940877E-2,9.3260306E-1,-6.5738857E-1,-1.08866235E-2,-2.6315942E-2,3.2975742E-1,-3.1875145E-1,2.3913558E-1,-1.8897016E-1,7.395342E-2,1.710483E-2,5.829242E-1,-5.570755E-1,5.397799E-2,-1.4143822E-1,4.4216892E-1,-1.0308356E0,-1.2616913E-1,8.6933357E-1,2.1569459E-2,-7.359211E-1,2.3014057E-1,1.6924678E-1,9.303922E-1,-3.7929112E-1,-2.3181608E0,-5.16236E-1,-5.7271387E-2,1.2286897E0,-3.277088E-1,-2.4760194E-2,4.7226986E-1,-1.0049835E0,-1.2670815E-1,-5.3857532E-3,9.421131E-1,9.7243756E-1,-4.66871E-2],"categories":[],"categories_nodes":[],"categories_segments":[],"categories_sizes":[],"default_left":[1,1,1,0,1,1,0,0,1,1,1,1,1,1,1,1,1,0,0,0,0,1,1,1,1,1,1,1,0,0,0,0,0,0,0,0,0,0,0,0,0,0,0],"id":15,"left_children":[1,3,5,-1,7,9,-1,-1,11,13,15,17,19,21,23,25,27,-1,-1,-1,-1,29,31,33,35,37,39,41,-1,-1,-1,-1,-1,-1,-1,-1,-1,-1,-1,-1,-1,-1,-1],"loss_changes":[1.3891754E1,2.338848E0,1.0529313E1,0E0,7.460468E-1,7.4584126E0,0E0,0E0,5.7694286E-1,7.4915714E0,5.3319306E0,3.27116E-1,3.840674E-1,9.129168E0,1.1829013E1,5.1787963E0,5.198477E0,0E0,0E0,0E0,0E0,9.200847E0,4.38095E0,7.949954E0,5.603809E0,1.0404541E0,4.2144456E0,3.2075646E0,0E0,0E0,0E0,0E0,0E0,0E0,0E0,0E0,0E0,0E0,0E0,0E0,0E0,0E0,0E0],"parents":[2147483647,0,0,1,1,2,2,4,4,5,5,8,8,9,9,10,10,11,11,12,12,13,13,14,14,15,15,16,16,21,21,22,22,23,23,24,24,25,25,26,26,27,27],"right_children":[2,4,6,-1,8,10,-1,-1,12,14,16,18,20,22,24,26,28,-1,-1,-1,-1,30,32,34,36,38,40,42,-1,-1,-1,-1,-1,-1,-1,-1,-1,-1,-1,-1,-1,-1,-1],"split_conditions":[-5E-1,5E-1,0E0,-2.8354612E-1,0E0,-5E-1,2.7978092E-1,-1.9721659E-1,5E-1,0E0,5E-1,5E-1,0E0,0E0,0E0,-5E-1,0E0,-1.6712266E-1,1.6193397E-2,-4.2431466E-2,1.3265069E-1,5E-1,0E0,5E-1,5E-1,0E0,5E-1,0E0,2.7911767E-1,-1.1378734E-1,-6.954483E-1,-1.5487081E-1,-1.7181417E-2,3.6860693E-1,-9.8312646E-2,-7.4280584E-3,1.4168097E-1,-3.0149508E-1,-3.8012445E-2,-1.615726E-3,2.8263393E-1,2.9173127E-1,-1.400613E-2],"split_indices":[13,7,5,0,12,15,0,0,25,12,7,6,0,19,22,25,24,0,0,0,0,14,27,13,13,26,6,16,0,0,0,0,0,0,0,0,0,0,0,0,0,0,0],"split_type":[0,0,0,0,0,0,0,0,0,0,0,0,0,0,0,0,0,0,0,0,0,0,0,0,0,0,0,0,0,0,0,0,0,0,0,0,0,0,0,0,0,0,0],"sum_hessian":[5.5881085E2,2.2894749E1,5.3591614E2,1.5723422E1,7.1713266E0,5.2397656E2,1.1939545E1,1.6662167E0,5.50511E0,4.5748846E2,6.6488106E1,2.34397E0,3.1611397E0,1.7413187E2,2.833566E2,3.0226696E1,3.6261414E1,1.1280855E0,1.2158846E0,1.2052832E0,1.9558567E0,1.1018012E1,1.6311385E2,1.6545156E1,2.6681143E2,6.1243305E0,2.4102365E1,1.7232445E1,1.9028969E1,8.175062E0,2.8429499E0,2.3511267E1,1.3960258E2,1.27047205E1,3.8404365E0,2.4279813E2,2.4013319E1,3.7975001E0,2.3268301E0,1.8856813E1,5.245552E0,2.9089324E0,1.4323512E1],"tree_param":{"num_deleted":"0","num_feature":"30","num_nodes":"43","size_leaf_vector":"0"}},{"base_weights":[7.322897E-3,-6.920049E-1,3.3381023E-2,-9.259697E-1,-2.058287E-1,1.61664E-2,9.0802866E-1,-6.9000304E-1,-2.3180358E-2,-1.0106589E-1,1.1094582E-1,1.9399184E-1,-5.5550945E-1,3.2280725E-1,-1.482509E-1,2.693426E-1,-4.2165864E-2,-1.8299933E-1,4.3641722E-1,-4.151784E-1,5.727736E-1,-2.9100987E-1,-3.1244662E-3,1.2590697E-1,6.410653E-1,1.545703E-1,-3.962603E-1,5.8584523E-1,6.632261E-2,-7.5517565E-1,4.739202E-1,7.130503E-1,3.8343556E-2,-7.097641E-1,-5.059407E-2,-9.556128E-2,6.521047E-1,-2.1430941E-1,4.4820425E-1,8.963557E-1,1.8398973E-1,-2.954483E-1,3.461821E-1,-1.487747E0,-2.349797E-1],"categories":[],"categories_nodes":[],"categories_segments":[],"categories_sizes":[],"default_left":[1,1,1,0,1,1,0,0,1,1,1,1,0,1,1,1,1,0,1,1,1,1,1,1,1,1,1,0,0,0,0,0,0,0,0,0,0,0,0,0,0,0,0,0,0],"id":16,"left_children":[1,3,5,-1,7,9,-1,-1,11,13,15,17,-1,19,21,23,25,-1,27,29,31,33,35,37,39,41,43,-1,-1,-1,-1,-1,-1,-1,-1,-1,-1,-1,-1,-1,-1,-1,-1,-1,-1],"loss_changes":[9.886694E0,2.0263596E0,7.8566256E0,0E0,6.576817E-1,5.719086E0,0E0,0E0,8.6684453E-1,4.651436E0,6.9119015E0,5.7380825E-1,0E0,4.5490484E0,4.3043714E0,7.3831453E0,1.02002735E1,0E0,1.5939587E-1,2.3206415E0,1.3129296E0,1.0509313E1,6.364819E0,1.1308366E1,4.35462E0,8.231955E0,8.850618E0,0E0,0E0,0E0,0E0,0E0,0E0,0E0,0E0,0E0,0E0,0E0,0E0,0E0,0E0,0E0,0E0,0E0,0E0],"parents":[2147483647,0,0,1,1,2,2,4,4,5,5,8,8,9,9,10,10,11,11,13,13,14,14,15,15,16,16,18,18,19,19,20,20,21,21,22,22,23,23,24,24,25,25,26,26],"right_children":[2,4,6,-1,8,10,-1,-1,12,14,16,18,-1,20,22,24,26,-1,28,30,32,34,36,38,40,42,44,-1,-1,-1,-1,-1,-1,-1,-1,-1,-1,-1,-1,-1,-1,-1,-1,-1,-1],"split_conditions":[-5E-1,5E-1,0E0,-2.7779093E-1,0E0,-5E-1,2.724086E-1,-2.0700093E-1,0E0,0E0,0E0,5E-1,-1.6665284E-1,0E0,0E0,5E-1,5E-1,-5.48998E-2,-5E-1,0E0,5E-1,-5E-1,0E0,5E-1,0E0,0E0,-5E-1,1.7575358E-1,1.9896783E-2,-2.2655271E-1,1.4217606E-1,2.139151E-1,1.1503067E-2,-2.1292925E-1,-1.5178221E-2,-2.8668385E-2,1.9563141E-1,-6.4292826E-2,1.3446128E-1,2.689067E-1,5.5196922E-2,-8.863449E-2,1.03854634E-1,-4.463241E-1,-7.0493914E-2],"split_indices":[13,7,5,0,4,14,0,0,8,21,23,25,0,12,23,6,14,0,6,22,13,6,26,25,26,0,28,0,0,0,0,0,0,0,0,0,0,0,0,0,0,0,0,0,0],"split_type":[0,0,0,0,0,0,0,0,0,0,0,0,0,0,0,0,0,0,0,0,0,0,0,0,0,0,0,0,0,0,0,0,0,0,0,0,0,0,0,0,0,0,0,0,0],"sum_hessian":[5.4026654E2,1.849E1,5.2177655E2,1.1872127E1,6.617873E0,5.127041E2,9.072446E0,1.0518372E0,5.566036E0,2.291737E2,2.835304E2,4.4046626E0,1.1613736E0,2.2370787E1,2.0680292E2,1.3898686E2,1.4454352E2,1.8198224E0,2.5848403E0,5.49291E0,1.6877876E1,1.03745056E2,1.0305786E2,1.012547E2,3.7732162E1,9.328018E1,5.1263332E1,1.4260876E0,1.1587526E0,4.0824003E0,1.4105096E0,1.3104098E1,3.7737777E0,3.712639E1,6.661867E1,9.106498E1,1.1992887E1,4.942102E1,5.183368E1,2.3593447E1,1.4138716E1,2.769468E1,6.55855E1,5.5407853E0,4.572255E1],"tree_param":{"num_deleted":"0","num_feature":"30","num_nodes":"45","size_leaf_vector":"0"}},{"base_weights":[6.0623223E-3,-1.5246427E-1,1.15000285E-1,-8.417549E-2,-6.7035836E-1,5.5541787E-2,5.952939E-1,-2.3620878E-1,1.02160454E-1,-1.1588243E0,2.203653E-1,6.6855717E-1,-1.4369659E-3,2.2864334E-1,7.7769226E-1,-9.9614465E-1,-9.172541E-2,7.220768E-1,2.4262222E-2,-9.632092E-1,1.0634562E0,3.2697114E-1,8.439225E-1,-1.0142547E-1,3.3103254E-1,-5.657618E-1,6.027319E-1,9.4674565E-2,9.172992E-1,-1.0822707E0,-2.6242873E-1,-7.521576E-1,4.4385158E-2,9.5712416E-2,2.4520402E0,9.381273E-1,-4.8569508E-2,-2.3281378E-1,1.5045736E0,-2.501877E-1,6.5300786E-1,8.9944607E-1,2.1384887E-1,8.258187E-1,-1.3171701E-1,-9.602367E-2,6.134215E-1,-1.248023E0,6.0064876E-1,2.4039237E-1,8.2929E-1,-4.1768965E-1,6.5814155E-1,3.801151E-1,9.634823E-1,-1.1445705E0,-3.5675982E-1,-9.526593E-1,3.139917E-1,1.7845304E-1,-5.02148E-1,-8.32703E-1,5.483461E-1,-1.8171449E-1,1.2361144E0,-3.073135E-1,8.414747E-2,-5.339146E-1,1.9385819E-1,9.038525E-1,-1.3840112E-1,9.614721E-1,1.7258756E-1,-5.0019944E-1,-6.706037E-2,1.2846701E-1,-9.0365255E-1,7.3185337E-1,-5.922622E-1,7.34613E-1,-4.6419516E-1,4.0001463E-2,5.298058E-1],"categories":[],"categories_nodes":[],"categories_segments":[],"categories_sizes":[],"default_left":[1,1,1,1,1,1,1,1,1,0,1,1,1,1,1,1,1,1,1,0,1,1,1,1,1,1,1,1,1,1,0,1,1,1,0,1,1,0,0,1,1,0,0,1,1,1,1,0,0,1,0,0,0,1,0,0,0,0,0,0,0,0,0,0,0,0,0,0,0,0,0,0,0,0,0,0,0,0,0,0,0,0,0],"id":17,"left_children":[1,3,5,7,9,11,13,15,17,-1,19,21,23,25,27,29,31,33,35,-1,37,39,41,43,45,47,49,51,53,55,-1,57,59,61,-1,63,65,-1,-1,67,69,-1,-1,71,73,75,77,-1,-1,79,-1,-1,-1,81,-1,-1,-1,-1,-1,-1,-1,-1,-1,-1,-1,-1,-1,-1,-1,-1,-1,-1,-1,-1,-1,-1,-1,-1,-1,-1,-1,-1,-1],"loss_changes":[9.119315E0,7.550642E0,8.903971E0,5.4400964E0,1.1095247E1,9.766273E0,2.1208057E0,1.1501333E1,4.16429E0,0E0,1.0667719E1,1.1484442E0,8.570371E0,4.1552215E0,2.062087E0,7.754345E-1,8.107145E0,1.0202656E1,5.234782E0,0E0,3.849224E0,1.9884552E0,3.3519745E-1,5.6754637E0,7.2474985E0,4.430048E0,5.5669975E-1,1.7009959E0,9.5127106E-2,2.5537682E-1,0E0,3.5917997E0,5.615325E0,3.8656912E0,0E0,2.1614394E0,2.5381815E0,0E0,0E0,6.356888E-1,1.410466E0,0E0,0E0,4.018302E-1,4.55947E0,4.574656E0,5.5764227E0,0E0,0E0,2.0651982E0,0E0,0E0,0E0,1.3784629E-1,0E0,0E0,0E0,0E0,0E0,0E0,0E0,0E0,0E0,0E0,0E0,0E0,0E0,0E0,0E0,0E0,0E0,0E0,0E0,0E0,0E0,0E0,0E0,0E0,0E0,0E0,0E0,0E0,0E0],"parents":[2147483647,0,0,1,1,2,2,3,3,4,4,5,5,6,6,7,7,8,8,10,10,11,11,12,12,13,13,14,14,15,15,16,16,17,17,18,18,20,20,21,21,22,22,23,23,24,24,25,25,26,26,27,27,28,28,29,29,31,31,32,32,33,33,35,35,36,36,39,39,40,40,43,43,44,44,45,45,46,46,49,49,53,53],"right_children":[2,4,6,8,10,12,14,16,18,-1,20,22,24,26,28,30,32,34,36,-1,38,40,42,44,46,48,50,52,54,56,-1,58,60,62,-1,64,66,-1,-1,68,70,-1,-1,72,74,76,78,-1,-1,80,-1,-1,-1,82,-1,-1,-1,-1,-1,-1,-1,-1,-1,-1,-1,-1,-1,-1,-1,-1,-1,-1,-1,-1,-1,-1,-1,-1,-1,-1,-1,-1,-1],"split_conditions":[5E-1,-5E-1,5E-1,5E-1,5E-1,-5E-1,0E0,0E0,0E0,-3.476473E-1,5E-1,-5E-1,0E0,5E-1,0E0,5E-1,0E0,0E0,0E0,-2.8896278E-1,0E0,0E0,5E-1,0E0,0E0,0E0,-5E-1,0E0,0E0,5E-1,-7.872862E-2,5E-1,0E0,-5E-1,7.356121E-1,-5E-1,-5E-1,-6.9844134E-2,4.513721E-1,5E-1,0E0,2.6983383E-1,6.415466E-2,0E0,0E0,5E-1,5E-1,-3.7440693E-1,1.8019463E-1,0E0,2.48787E-1,-1.253069E-1,1.9744247E-1,0E0,2.890447E-1,-3.4337115E-1,-1.0702795E-1,-2.857978E-1,9.419751E-2,5.3535916E-2,-1.5064439E-1,-2.498109E-1,1.6450384E-1,-5.451435E-2,3.7083432E-1,-9.219405E-2,2.5244242E-2,-1.601744E-1,5.815746E-2,2.7115577E-1,-4.152034E-2,2.8844163E-1,5.177627E-2,-1.5005983E-1,-2.0118114E-2,3.8540103E-2,-2.7109578E-1,2.1955602E-1,-1.7767867E-1,2.2038391E-1,-1.3925855E-1,1.200044E-2,1.5894175E-1],"split_indices":[7,7,13,28,6,25,0,24,11,0,25,14,26,28,27,13,0,4,3,0,3,0,18,20,0,12,14,26,3,15,0,1,26,14,0,25,6,0,0,6,12,0,0,9,27,14,18,0,0,23,0,0,0,21,0,0,0,0,0,0,0,0,0,0,0,0,0,0,0,0,0,0,0,0,0,0,0,0,0,0,0,0,0],"split_type":[0,0,0,0,0,0,0,0,0,0,0,0,0,0,0,0,0,0,0,0,0,0,0,0,0,0,0,0,0,0,0,0,0,0,0,0,0,0,0,0,0,0,0,0,0,0,0,0,0,0,0,0,0,0,0,0,0,0,0,0,0,0,0,0,0,0,0,0,0,0,0,0,0,0,0,0,0,0,0,0,0,0,0],"sum_hessian":[5.2604175E2,2.1409338E2,3.1194836E2,1.9017917E2,2.3914223E1,2.7857724E2,3.3371147E1,1.0458203E2,8.559714E1,1.525016E1,8.664062E0,2.2778418E1,2.5579881E2,1.18348E1,2.1536346E1,1.576559E1,8.881644E1,8.632217E0,7.696492E1,3.5449727E0,5.119089E0,8.698849E0,1.4079569E1,1.971899E2,5.8608917E1,3.624829E0,8.20997E0,3.9397132E0,1.7596634E1,1.3684233E1,2.0813572E0,1.4403255E1,7.4413185E1,7.1123786E0,1.5198385E0,4.8041024E0,7.216082E1,1.419616E0,3.6994731E0,3.2241E0,5.4747486E0,1.2546422E1,1.5331463E0,5.4072747E0,1.9178262E2,2.3591501E1,3.5017414E1,2.2429218E0,1.3819072E0,3.9514265E0,4.2585444E0,2.1989284E0,1.7407849E0,2.1238163E0,1.5472816E1,1.2070161E1,1.6140717E0,1.2212923E1,2.1903327E0,6.029575E1,1.4117432E1,2.0558522E0,5.0565267E0,1.0916923E0,3.71241E0,2.4018661E1,4.8142155E1,1.8436791E0,1.3804209E0,4.0492268E0,1.4255217E0,4.0867314E0,1.3205432E0,2.7622715E1,1.6415991E2,1.911827E1,4.473232E0,3.224323E1,2.774188E0,2.2973652E0,1.6540611E0,1.036348E0,1.0874683E0],"tree_param":{"num_deleted":"0","num_feature":"30","num_nodes":"83","size_leaf_vector":"0"}},{"base_weights":[6.449431E-3,-6.2869084E-1,2.57756E-2,-8.910217E-1,-2.0712084E-1,3.5233945E-1,-1.26690455E-2,-4.0366456E-1,2.0057684E-1,-3.437067E-1,5.2570504E-1,-9.786589E-1,1.0839241E-2,-7.280965E-1,-1.2255393E-1,-9.548125E-1,2.5118676E-1,7.741115E-1,1.06152385E-1,2.421845E-1,-1.1417564E0,-2.5466742E-2,3.3859324E-1,-5.692945E-1,2.9146358E-1,8.44793E-1,-8.606895E-1,3.324362E-1,1.0720223E0,-8.907984E-1,3.633524E-1,-1.2103224E-1,1.4334795E-1,6.6152775E-1,-3.5208574E-1,9.498197E-1,-5.03047E-1,1.1361691E0,3.861796E-1,-1.2575376E0,-4.6996027E-2,8.2164174E-1,-1.3099964E-1,-8.88295E-1,-5.596132E-3,1.4856833E0,9.885712E-2,1.2115417E0,4.6336362E-1,-1.0530083E0,1.6250389E-2],"categories":[],"categories_nodes":[],"categories_segments":[],"categories_sizes":[],"default_left":[1,1,1,0,1,1,1,1,0,1,1,1,1,0,1,0,1,1,1,0,0,1,1,0,0,0,0,1,1,1,1,1,1,1,1,0,0,0,0,0,0,0,0,0,0,0,0,0,0,0,0],"id":18,"left_children":[1,3,5,-1,7,9,11,13,-1,15,17,19,21,-1,23,-1,25,27,29,-1,-1,31,33,-1,-1,-1,-1,35,37,39,41,43,45,47,49,-1,-1,-1,-1,-1,-1,-1,-1,-1,-1,-1,-1,-1,-1,-1,-1],"loss_changes":[6.252761E0,1.4790378E0,6.20688E0,0E0,6.477235E-1,6.4638796E0,1.00697975E1,3.762828E-1,0E0,4.2342715E0,4.303542E0,2.374174E0,5.1661963E0,0E0,8.9412725E-1,0E0,4.924371E0,3.1006117E0,4.6336517E0,0E0,0E0,6.3274975E0,9.889364E0,0E0,0E0,0E0,0E0,6.6842923E0,2.3173523E-1,1.0972745E0,3.2956786E0,2.2163572E1,8.324155E0,2.6918325E0,3.7466996E0,0E0,0E0,0E0,0E0,0E0,0E0,0E0,0E0,0E0,0E0,0E0,0E0,0E0,0E0,0E0,0E0],"parents":[2147483647,0,0,1,1,2,2,4,4,5,5,6,6,7,7,9,9,10,10,11,11,12,12,14,14,16,16,17,17,18,18,21,21,22,22,27,27,28,28,29,29,30,30,31,31,32,32,33,33,34,34],"right_children":[2,4,6,-1,8,10,12,14,-1,16,18,20,22,-1,24,-1,26,28,30,-1,-1,32,34,-1,-1,-1,-1,36,38,40,42,44,46,48,50,-1,-1,-1,-1,-1,-1,-1,-1,-1,-1,-1,-1,-1,-1,-1,-1],"split_conditions":[-5E-1,5E-1,0E0,-2.6730654E-1,5E-1,5E-1,0E0,0E0,6.0173053E-2,0E0,5E-1,-5E-1,5E-1,-2.1842895E-1,5E-1,-2.8644377E-1,0E0,-5E-1,-5E-1,7.265536E-2,-3.4252694E-1,5E-1,5E-1,-1.7078836E-1,8.7439075E-2,2.534379E-1,-2.5820687E-1,0E0,-5E-1,0E0,5E-1,0E0,0E0,0E0,0E0,2.849459E-1,-1.509141E-1,3.4085074E-1,1.1585388E-1,-3.772613E-1,-1.4098809E-2,2.4649253E-1,-3.9299894E-2,-2.6648852E-1,-1.6788397E-3,4.4570503E-1,2.9657137E-2,3.634625E-1,1.3900909E-1,-3.159025E-1,4.875117E-3],"split_indices":[13,7,17,0,6,7,4,3,0,16,1,28,1,0,25,0,1,14,28,0,0,28,14,0,0,0,0,4,1,9,6,24,11,16,24,0,0,0,0,0,0,0,0,0,0,0,0,0,0,0,0],"split_type":[0,0,0,0,0,0,0,0,0,0,0,0,0,0,0,0,0,0,0,0,0,0,0,0,0,0,0,0,0,0,0,0,0,0,0,0,0,0,0,0,0,0,0,0,0,0,0,0,0,0,0],"sum_hessian":[5.070768E2,1.4042718E1,4.930341E2,7.9697766E0,6.072941E0,5.106902E1,4.419651E2,4.1042485E0,1.9686922E0,9.987522E0,4.1081497E1,9.534824E0,4.3243027E2,1.1671551E0,2.9370937E0,4.628189E0,5.359333E0,2.5272943E1,1.5808556E1,1.0665336E0,8.46829E0,3.9013635E2,4.2293903E1,1.232322E0,1.7047716E0,3.650579E0,1.7087542E0,1.1032427E1,1.4240516E1,2.7368019E0,1.30717535E1,2.4929451E2,1.4084184E2,2.8847939E1,1.3445963E1,6.2655926E0,4.7668343E0,1.2422076E1,1.8184391E0,1.565898E0,1.170904E0,6.4397354E0,6.6320186E0,3.1726255E1,2.1756825E2,3.479151E0,1.3736269E2,6.2862716E0,2.2561668E1,3.9915144E0,9.454449E0],"tree_param":{"num_deleted":"0","num_feature":"30","num_nodes":"51","size_leaf_vector":"0"}},{"base_weights":[5.0809686E-3,-8.105895E-3,8.7288296E-1,-6.590173E-1,8.529616E-3,1.2237401E-1,-7.401991E-1,-2.4071228E-2,2.5250104E-1,-1.7489885E-1,-8.942701E-1,4.9844272E-2,-1.5862466E-1,-1.1556314E-2,4.9970728E-1,-2.533591E-1,-4.5402296E-2,-3.9410718E-2,3.1145623E-1,-1.1655881E0,-1.02018215E-1,-3.7041876E-1,2.5648153E-1,8.932043E-1,1.4686622E-1,5.638726E-1,-1.2255092E-1,-3.6069814E-2,5.6153953E-1,-1.342883E0,-3.1188217E-1,9.5276403E-1,-1.3743113E-1,-8.561343E-1,1.1718645E-1,-8.304084E-1,4.861633E-1,3.6067253E-1,9.5318794E-1,-1.4591111E-1,8.187283E-1],"categories":[],"categories_nodes":[],"categories_segments":[],"categories_sizes":[],"default_left":[1,1,0,1,1,0,1,1,1,1,0,1,1,1,1,0,0,1,1,1,1,1,1,1,1,0,0,0,0,0,0,0,0,0,0,0,0,0,0,0,0],"id":19,"left_children":[1,3,-1,5,7,-1,9,11,13,15,-1,17,19,21,23,-1,-1,25,27,29,31,33,35,37,39,-1,-1,-1,-1,-1,-1,-1,-1,-1,-1,-1,-1,-1,-1,-1,-1],"loss_changes":[5.6792784E0,5.3032107E0,0E0,8.6478806E-1,3.8081996E0,0E0,8.188968E-1,4.210894E0,3.689663E0,2.5495261E-2,0E0,6.3990426E0,8.435577E0,2.8137672E0,3.9188576E0,0E0,0E0,1.0342752E1,6.0771995E0,7.756386E-1,5.4793334E0,3.0593905E0,4.590356E0,9.044075E-2,3.380132E0,0E0,0E0,0E0,0E0,0E0,0E0,0E0,0E0,0E0,0E0,0E0,0E0,0E0,0E0,0E0,0E0],"parents":[2147483647,0,0,1,1,3,3,4,4,6,6,7,7,8,8,9,9,11,11,12,12,13,13,14,14,17,17,18,18,19,19,20,20,21,21,22,22,23,23,24,24],"right_children":[2,4,-1,6,8,-1,10,12,14,16,-1,18,20,22,24,-1,-1,26,28,30,32,34,36,38,40,-1,-1,-1,-1,-1,-1,-1,-1,-1,-1,-1,-1,-1,-1,-1,-1],"split_conditions":[0E0,-5E-1,2.618649E-1,-5E-1,-5E-1,3.6712207E-2,0E0,0E0,5E-1,5E-1,-2.6828104E-1,5E-1,0E0,5E-1,5E-1,-7.600774E-2,-1.36206895E-2,0E0,-5E-1,5E-1,0E0,5E-1,0E0,-5E-1,5E-1,1.6916178E-1,-3.6765277E-2,-1.0820945E-2,1.6846186E-1,-4.028649E-1,-9.356465E-2,2.8582922E-1,-4.122934E-2,-2.568403E-1,3.5155937E-2,-2.4912253E-1,1.4584899E-1,1.08201765E-1,2.8595638E-1,-4.3773334E-2,2.456185E-1],"split_indices":[5,13,0,28,15,0,22,8,7,25,0,28,10,25,1,0,0,16,14,13,9,6,27,6,25,0,0,0,0,0,0,0,0,0,0,0,0,0,0,0,0],"split_type":[0,0,0,0,0,0,0,0,0,0,0,0,0,0,0,0,0,0,0,0,0,0,0,0,0,0,0,0,0,0,0,0,0,0,0,0,0,0,0,0,0],"sum_hessian":[4.946666E2,4.8823813E2,6.4284635E0,1.1204769E1,4.7703336E2,1.006791E0,1.0197978E1,4.2159833E2,5.5435024E1,2.64145E0,7.5565276E0,2.7252124E2,1.490771E2,2.7264868E1,2.8170156E1,1.0492376E0,1.5922124E0,2.0382944E2,6.8691795E1,6.891642E0,1.4218546E2,1.149407E1,1.5770799E1,1.259379E1,1.5576366E1,2.3987652E1,1.798418E2,2.9103767E1,3.9588028E1,5.232061E0,1.6595813E0,3.777168E0,1.384083E2,5.379562E0,6.1145077E0,2.2950046E0,1.3475794E1,1.9848893E0,1.0608901E1,1.139402E1,4.182346E0],"tree_param":{"num_deleted":"0","num_feature":"30","num_nodes":"41","size_leaf_vector":"0"}},{"base_weights":[5.488151E-3,-1.5000121E-1,6.731381E-2,3.3348307E-1,-2.6349458E-1,-1.410851E-1,1.6750753E-1,8.300225E-1,-2.7622157E-1,-4.7265884E-1,5.284902E-2,-5.4980075E-1,9.4152614E-2,-2.9074773E-1,2.3640434E-1,-4.7321057E-1,9.841191E-1,3.0538636E-1,-5.0064296E-1,-1.0112972E-1,-9.555798E-1,-1.6918242E-2,7.9332364E-1,-6.4848256E-1,5.454219E-1,-1.288057E-1,2.993085E-1,6.768971E-1,-4.0652514E-1,2.291419E-2,4.0905914E-1,-8.7500334E-2,5.2394694E-1,1.9496728E-1,-7.958516E-1,6.6082793E-1,-3.6861348E-1,-3.0601007E-1,-1.2758057E0,1.9252206E-1,-3.3085042E-1,-8.9353096E-1,-2.3383138E-1,-5.140584E-1,6.903914E-2,4.1992894E-1,-2.3379657E-1,-5.068335E-1,4.042214E-1,9.033312E-1,1.3239027E-3,4.55117E-1,-8.2611537E-1,-2.0449322E-1,6.208014E-1,-2.1235783E-1,-1.377317E0,1.4530341E-1,8.649528E-1,4.701517E-2,-6.8742573E-1,-9.0020823E-1,3.4656817E-1,5.1375663E-1,-1.4259417E0,-1.8939112E-1,3.817824E-1,2.394864E-1,-7.151234E-1,-1.7037715E-1,-1.1651498E0,-7.1669817E-1,5.6527287E-1,-1.0865403E0,2.284595E-2,-6.300601E-1,1.8730295E-1,8.661336E-3,8.032177E-1,7.7559465E-1,-9.694554E-1,-2.1949154E-1,-7.452156E-1,1.0040241E-1,5.653673E-1,-1.2100125E-1,1.5763259E-1,2.1682347E-1,6.339702E-1,-1.0692228E0,-2.1390283E-1],"categories":[],"categories_nodes":[],"categories_segments":[],"categories_sizes":[],"default_left":[1,1,1,1,1,1,1,1,1,1,1,1,1,1,1,0,0,1,1,1,1,1,0,1,0,1,1,0,1,1,1,0,0,1,1,1,1,1,1,1,1,1,1,1,1,1,1,1,1,0,1,1,1,0,0,0,0,0,0,0,0,0,0,0,0,0,0,0,0,0,0,0,0,0,0,0,0,0,0,0,0,0,0,0,0,0,0,0,0,0,0],"id":20,"left_children":[1,3,5,7,9,11,13,15,17,19,21,23,25,27,29,-1,-1,31,33,35,37,39,-1,41,-1,43,45,-1,47,49,51,-1,-1,53,55,57,59,61,63,65,67,69,71,73,75,77,79,81,83,-1,85,87,89,-1,-1,-1,-1,-1,-1,-1,-1,-1,-1,-1,-1,-1,-1,-1,-1,-1,-1,-1,-1,-1,-1,-1,-1,-1,-1,-1,-1,-1,-1,-1,-1,-1,-1,-1,-1,-1,-1],"loss_changes":[4.652462E0,7.643657E0,7.2527194E0,8.2881365E0,7.4409447E0,1.0911589E1,7.464997E0,3.4621906E0,1.8103685E0,1.2026549E1,2.3644648E0,4.8290052E0,3.356815E0,3.7555313E0,7.517393E0,0E0,0E0,4.0278405E-1,2.1145709E0,8.254855E0,5.69631E0,2.8626509E0,0E0,3.6971588E0,0E0,2.7384849E0,2.5469346E0,0E0,2.5121274E0,1.7544502E0,6.7952137E0,0E0,0E0,7.471731E-1,2.0470781E0,9.867654E-1,3.9725418E0,4.5687304E0,5.9137745E0,1.9636474E0,3.985419E0,4.477947E0,6.4376683E0,3.7596421E0,2.1280808E0,4.9447255E0,6.4465337E0,1.5961852E0,1.2340504E-1,0E0,1.761945E0,4.5262012E0,4.2786717E-1,0E0,0E0,0E0,0E0,0E0,0E0,0E0,0E0,0E0,0E0,0E0,0E0,0E0,0E0,0E0,0E0,0E0,0E0,0E0,0E0,0E0,0E0,0E0,0E0,0E0,0E0,0E0,0E0,0E0,0E0,0E0,0E0,0E0,0E0,0E0,0E0,0E0,0E0],"parents":[2147483647,0,0,1,1,2,2,3,3,4,4,5,5,6,6,7,7,8,8,9,9,10,10,11,11,12,12,13,13,14,14,17,17,18,18,19,19,20,20,21,21,23,23,25,25,26,26,28,28,29,29,30,30,33,33,34,34,35,35,36,36,37,37,38,38,39,39,40,40,41,41,42,42,43,43,44,44,45,45,46,46,47,47,48,48,50,50,51,51,52,52],"right_children":[2,4,6,8,10,12,14,16,18,20,22,24,26,28,30,-1,-1,32,34,36,38,40,-1,42,-1,44,46,-1,48,50,52,-1,-1,54,56,58,60,62,64,66,68,70,72,74,76,78,80,82,84,-1,86,88,90,-1,-1,-1,-1,-1,-1,-1,-1,-1,-1,-1,-1,-1,-1,-1,-1,-1,-1,-1,-1,-1,-1,-1,-1,-1,-1,-1,-1,-1,-1,-1,-1,-1,-1,-1,-1,-1,-1],"split_conditions":[0E0,0E0,0E0,5E-1,5E-1,5E-1,0E0,0E0,-5E-1,0E0,5E-1,0E0,5E-1,0E0,-5E-1,-1.4196318E-1,2.9523575E-1,0E0,0E0,-5E-1,-5E-1,0E0,2.379971E-1,5E-1,1.6362658E-1,0E0,5E-1,2.0306914E-1,0E0,0E0,5E-1,-2.6250102E-2,1.571841E-1,-5E-1,-5E-1,-5E-1,0E0,0E0,0E0,5E-1,5E-1,0E0,0E0,-5E-1,0E0,-5E-1,0E0,5E-1,5E-1,2.7099937E-1,0E0,5E-1,5E-1,-6.134797E-2,1.8624042E-1,-6.370735E-2,-4.131951E-1,4.3591026E-2,2.5948584E-1,1.4104552E-2,-2.0622773E-1,-2.7006248E-1,1.0397045E-1,1.54127E-1,-4.2778254E-1,-5.6817338E-2,1.1453473E-1,7.184592E-2,-2.1453704E-1,-5.1113147E-2,-3.4954494E-1,-2.1500947E-1,1.6958186E-1,-3.2596213E-1,6.8537854E-3,-1.8901803E-1,5.6190886E-2,2.598401E-3,2.4096532E-1,2.326784E-1,-2.9083663E-1,-6.5847464E-2,-2.2356468E-1,3.0120723E-2,1.6961019E-1,-3.6300376E-2,4.7289778E-2,6.504705E-2,1.9019108E-1,-3.2076687E-1,-6.417085E-2],"split_indices":[0,24,24,1,6,28,27,9,6,23,15,26,25,11,14,0,0,23,3,6,6,8,0,25,0,12,14,0,26,2,18,0,0,14,14,14,26,12,22,7,25,21,23,6,16,6,8,25,6,0,23,7,6,0,0,0,0,0,0,0,0,0,0,0,0,0,0,0,0,0,0,0,0,0,0,0,0,0,0,0,0,0,0,0,0,0,0,0,0,0,0],"split_type":[0,0,0,0,0,0,0,0,0,0,0,0,0,0,0,0,0,0,0,0,0,0,0,0,0,0,0,0,0,0,0,0,0,0,0,0,0,0,0,0,0,0,0,0,0,0,0,0,0,0,0,0,0,0,0,0,0,0,0,0,0,0,0,0,0,0,0,0,0,0,0,0,0,0,0,0,0,0,0,0,0,0,0,0,0,0,0,0,0,0,0],"sum_hessian":[4.8191403E2,1.3669775E2,3.4521628E2,2.5619549E1,1.1107821E2,1.11952156E2,2.3326411E2,1.3921015E1,1.1698534E1,6.656906E1,4.4509148E1,4.0407906E1,7.154426E1,3.00659E1,2.0319821E2,1.2530228E0,1.2667992E1,3.1567533E0,8.54178E0,3.8307266E1,2.8261795E1,4.1569626E1,2.9395235E0,3.7442184E1,2.9657192E0,3.4462944E1,3.708131E1,2.6950078E0,2.7370892E1,9.136132E1,1.1183688E2,1.3427192E0,1.8140342E0,2.6461437E0,5.895637E0,9.571431E0,2.8735836E1,9.977765E0,1.8284029E1,2.5166498E1,1.6403126E1,2.2808212E1,1.4633973E1,1.1150968E1,2.3311975E1,3.0412476E1,6.6688356E0,2.4690903E1,2.679989E0,1.2092764E0,9.015205E1,1.0842539E2,3.4114897E0,1.633549E0,1.0125948E0,3.6241026E0,2.2715342E0,3.2004414E0,6.37099E0,1.2843966E1,1.589187E1,5.02387E0,4.9538956E0,1.2277528E0,1.7056276E1,8.3387785E0,1.682772E1,6.7546597E0,9.648465E0,6.6720138E0,1.6136198E1,9.186227E0,5.4477463E0,4.9012384E0,6.249729E0,2.7468414E0,2.0565134E1,1.5164072E1,1.5248404E1,2.7884886E0,3.8803473E0,1.2066678E1,1.2624226E1,1.4913331E0,1.1886559E0,5.0700428E1,3.945162E1,4.7436317E1,6.098908E1,1.9075277E0,1.503962E0],"tree_param":{"num_deleted":"0","num_feature":"30","num_nodes":"91","size_leaf_vector":"0"}},{"base_weights":[4.628329E-3,-5.3181187E-3,8.249521E-1,-6.1478484E-1,7.884207E-3,-8.211758E-1,-2.7508056E-1,-1.07004985E-1,5.2065536E-2,-4.4299668E-1,1.0900566E-1,-4.2849416E-1,5.3680956E-2,-1.0931226E-1,1.29296E-1,-1.5693922E-1,-5.973385E-1,2.3777369E-1,-6.061104E-1,2.9280868E-1,-1.5394078E-1,-2.0462404E-1,6.154082E-1,-2.0584342E-1,1.811538E-1,-6.5248466E-1,8.0987835E-1,-7.3800594E-1,4.0315706E-1,6.224498E-1,-4.662086E-2,6.982174E-1,-3.078217E-1,-4.9856344E-1,-2.7448075E-2,-1.245442E-1,1.0426704E0,5.2651256E-1,-2.9744652E-1,2.2949569E-2,3.1864417E-1],"categories":[],"categories_nodes":[],"categories_segments":[],"categories_sizes":[],"default_left":[1,1,0,1,1,0,1,1,1,1,0,1,1,1,1,0,0,1,1,1,1,1,1,1,1,0,0,0,0,0,0,0,0,0,0,0,0,0,0,0,0],"id":21,"left_children":[1,3,-1,5,7,-1,9,11,13,15,-1,17,19,21,23,-1,-1,25,27,29,31,33,35,37,39,-1,-1,-1,-1,-1,-1,-1,-1,-1,-1,-1,-1,-1,-1,-1,-1],"loss_changes":[3.7810838E0,3.692649E0,0E0,4.5631957E-1,2.2876604E0,0E0,3.8244587E-1,6.4906273E0,4.0695496E0,7.414001E-2,0E0,5.0947704E0,4.233627E0,7.4381933E0,3.8699808E0,0E0,0E0,5.378835E0,4.731806E0,4.454507E0,6.2223754E0,4.8977327E0,4.0987425E0,2.1704655E0,4.1583133E0,0E0,0E0,0E0,0E0,0E0,0E0,0E0,0E0,0E0,0E0,0E0,0E0,0E0,0E0,0E0,0E0],"parents":[2147483647,0,0,1,1,3,3,4,4,6,6,7,7,8,8,9,9,11,11,12,12,13,13,14,14,17,17,18,18,19,19,20,20,21,21,22,22,23,23,24,24],"right_children":[2,4,-1,6,8,-1,10,12,14,16,-1,18,20,22,24,-1,-1,26,28,30,32,34,36,38,40,-1,-1,-1,-1,-1,-1,-1,-1,-1,-1,-1,-1,-1,-1,-1,-1],"split_conditions":[0E0,-5E-1,2.4748565E-1,5E-1,0E0,-2.4635275E-1,5E-1,5E-1,0E0,-5E-1,3.27017E-2,0E0,0E0,0E0,0E0,-4.708177E-2,-1.7920156E-1,5E-1,-5E-1,0E0,-5E-1,5E-1,5E-1,0E0,-5E-1,-1.9574541E-1,2.4296351E-1,-2.214018E-1,1.2094712E-1,1.8673494E-1,-1.3986259E-2,2.0946522E-1,-9.234651E-2,-1.4956903E-1,-8.234423E-3,-3.736326E-2,3.1280112E-1,1.5795377E-1,-8.923396E-2,6.884871E-3,9.559325E-2],"split_indices":[5,13,0,7,0,0,6,28,24,6,0,16,23,26,27,0,0,7,15,26,25,28,7,11,14,0,0,0,0,0,0,0,0,0,0,0,0,0,0,0,0],"split_type":[0,0,0,0,0,0,0,0,0,0,0,0,0,0,0,0,0,0,0,0,0,0,0,0,0,0,0,0,0,0,0,0,0,0,0,0,0,0,0,0,0],"sum_hessian":[4.6186972E2,4.5731824E2,4.5514784E0,8.73029E0,4.4858795E2,4.549107E0,4.181184E0,1.2419892E2,3.2438904E2,2.8025687E0,1.378615E0,4.0834156E1,8.336477E1,1.04860725E2,2.1952829E2,1.6890004E0,1.1135684E0,8.523271E0,3.2310886E1,3.855215E1,4.481262E1,9.3307076E1,1.1553652E1,2.9018988E1,1.9050931E2,3.2795024E0,5.243768E0,2.8814102E1,3.4967828E0,1.9135075E1,1.9417074E1,6.3133426E0,3.8499275E1,3.4408524E1,5.8898552E1,4.4885974E0,7.065054E0,2.6983373E0,2.632065E1,8.9124504E1,1.013848E2],"tree_param":{"num_deleted":"0","num_feature":"30","num_nodes":"41","size_leaf_vector":"0"}},{"base_weights":[5.1733963E-3,-9.859739E-2,7.689149E-2,-4.6742484E-2,-5.6757545E-1,5.4114944E-1,3.4779035E-2,3.157959E-2,-3.3237472E-1,-1.11063E0,1.822393E-1,-1.14634484E-1,6.497232E-1,-1.18931614E-1,2.0680138E-1,2.2065859E-1,-1.2320485E-1,-5.415291E-1,2.3485702E-1,-8.9161384E-1,8.628519E-1,5.921026E-1,-8.9405304E-1,2.2408186E-1,8.3545244E-1,-1.5608634E-2,-5.4775596E-1,2.8965732E-2,5.987246E-1,-2.7912185E-1,6.11694E-1,6.898091E-1,-2.3394053E-1,-6.9541067E-1,-3.782105E-2,9.9832916E-1,-3.0219173E-1,-1.7954765E-1,1.1702507E0,-3.295466E-1,6.203834E-1,-6.545767E-1,7.365236E-2,8.958557E-1,-7.539022E-1,2.5748625E-1,-1.8720137E-1,-3.811698E-1,7.147232E-1,-4.300416E-1,9.870453E-1,8.310799E-1,1.2829097E-1,-4.3343037E-1,1.078527E0,-3.1313986E-1,4.240851E-1,-1.0276465E0,-4.2987546E-1,-7.757816E-1,3.240158E-1,-4.5329E-1,2.852735E-1,8.4341526E-2,-6.8536025E-1,7.676912E-1,9.429187E-2,-2.9658255E-1,-1.4977964E0,-1.8557997E-2,9.548126E-1,7.877226E-2,-1.0674428E0,-3.3379447E-1,6.688932E-1,5.920627E-1,-1.0583436E0,5.865414E-1,-9.221387E-1,4.3229252E-1,8.4476554E-1],"categories":[],"categories_nodes":[],"categories_segments":[],"categories_sizes":[],"default_left":[1,1,1,1,1,1,1,1,1,0,1,1,1,1,1,1,1,1,1,0,1,0,0,1,0,1,1,1,1,1,1,1,1,1,1,0,1,0,0,1,1,1,1,0,1,1,1,1,1,0,0,0,0,0,0,0,0,0,0,0,0,0,0,0,0,0,0,0,0,0,0,0,0,0,0,0,0,0,0,0,0],"id":22,"left_children":[1,3,5,7,9,11,13,15,17,-1,19,21,23,25,27,29,31,33,35,-1,37,-1,-1,39,-1,41,43,45,47,49,51,53,55,57,59,-1,61,-1,-1,63,65,67,69,-1,71,73,75,77,79,-1,-1,-1,-1,-1,-1,-1,-1,-1,-1,-1,-1,-1,-1,-1,-1,-1,-1,-1,-1,-1,-1,-1,-1,-1,-1,-1,-1,-1,-1,-1,-1],"loss_changes":[3.3729546E0,4.47831E0,5.2200346E0,3.7663665E0,7.6756124E0,1.6562881E0,6.548857E0,3.9100294E0,4.42379E0,0E0,7.031533E0,2.7359025E0,1.3314495E0,5.7931185E0,8.123406E0,1.1911971E1,6.786979E0,2.0480547E0,4.5879936E0,0E0,2.0533814E0,0E0,0E0,1.7846966E0,0E0,6.125096E0,8.232676E0,4.0690026E0,4.4105043E0,5.5951424E0,3.5012112E0,4.429988E0,3.5472927E0,1.3616333E0,2.2059722E0,0E0,7.421967E-1,0E0,0E0,5.964907E-1,2.7980685E-1,3.5286179E0,7.68677E0,0E0,6.0273438E0,9.950609E0,2.9414669E1,2.899584E0,8.431568E-1,0E0,0E0,0E0,0E0,0E0,0E0,0E0,0E0,0E0,0E0,0E0,0E0,0E0,0E0,0E0,0E0,0E0,0E0,0E0,0E0,0E0,0E0,0E0,0E0,0E0,0E0,0E0,0E0,0E0,0E0,0E0,0E0],"parents":[2147483647,0,0,1,1,2,2,3,3,4,4,5,5,6,6,7,7,8,8,10,10,11,11,12,12,13,13,14,14,15,15,16,16,17,17,18,18,20,20,23,23,25,25,26,26,27,27,28,28,29,29,30,30,31,31,32,32,33,33,34,34,36,36,39,39,40,40,41,41,42,42,44,44,45,45,46,46,47,47,48,48],"right_children":[2,4,6,8,10,12,14,16,18,-1,20,22,24,26,28,30,32,34,36,-1,38,-1,-1,40,-1,42,44,46,48,50,52,54,56,58,60,-1,62,-1,-1,64,66,68,70,-1,72,74,76,78,80,-1,-1,-1,-1,-1,-1,-1,-1,-1,-1,-1,-1,-1,-1,-1,-1,-1,-1,-1,-1,-1,-1,-1,-1,-1,-1,-1,-1,-1,-1,-1,-1],"split_conditions":[5E-1,-5E-1,-5E-1,0E0,5E-1,0E0,5E-1,0E0,0E0,-3.33189E-1,5E-1,0E0,0E0,5E-1,5E-1,-5E-1,-5E-1,5E-1,0E0,-2.6748416E-1,0E0,1.7763078E-1,-2.6821592E-1,-5E-1,2.5063574E-1,0E0,0E0,-5E-1,0E0,5E-1,5E-1,0E0,5E-1,5E-1,0E0,2.9949877E-1,5E-1,-5.3864297E-2,3.510752E-1,0E0,0E0,0E0,-5E-1,2.6875672E-1,-5E-1,0E0,0E0,5E-1,0E0,-1.290125E-1,2.961136E-1,2.4932398E-1,3.8487293E-2,-1.3002911E-1,3.235581E-1,-9.3941964E-2,1.2722553E-1,-3.0829397E-1,-1.2896265E-1,-2.3273449E-1,9.7204745E-2,-1.35987E-1,8.558205E-2,2.5302459E-2,-2.0560808E-1,2.3030737E-1,2.8287563E-2,-8.897477E-2,-4.4933894E-1,-5.5673993E-3,2.864438E-1,2.3631679E-2,-3.2023284E-1,-1.00138344E-1,2.0066798E-1,1.7761882E-1,-3.175031E-1,1.7596243E-1,-2.766416E-1,1.2968776E-1,2.5342968E-1],"split_indices":[7,7,25,26,6,4,25,23,23,0,25,24,0,14,6,6,25,6,1,0,3,0,0,14,0,11,11,6,22,14,6,24,1,25,12,0,13,0,0,8,8,17,1,0,6,23,23,28,12,0,0,0,0,0,0,0,0,0,0,0,0,0,0,0,0,0,0,0,0,0,0,0,0,0,0,0,0,0,0,0,0],"split_type":[0,0,0,0,0,0,0,0,0,0,0,0,0,0,0,0,0,0,0,0,0,0,0,0,0,0,0,0,0,0,0,0,0,0,0,0,0,0,0,0,0,0,0,0,0,0,0,0,0,0,0,0,0,0,0,0,0,0,0,0,0,0,0,0,0,0,0,0,0,0,0,0,0,0,0,0,0,0,0,0,0],"sum_hessian":[4.5119876E2,1.8424092E2,2.6695782E2,1.6688782E2,1.7353117E1,2.1216114E1,2.4574171E2,1.31672E2,3.5215813E1,9.785064E0,7.5680547E0,3.0057282E0,1.8210386E1,1.2994127E2,1.15800446E2,5.9078403E1,7.25936E1,2.5761961E1,9.453852E0,2.8156219E0,4.752433E0,1.7024033E0,1.3033249E0,6.202479E0,1.2007907E1,1.0554673E2,2.4394533E1,8.039502E1,3.540543E1,2.6058878E1,3.3019524E1,8.075378E0,6.451822E1,1.9441921E1,6.3200407E0,3.549269E0,5.9045825E0,1.1770225E0,3.5754101E0,2.6578875E0,3.5445917E0,1.2160857E1,9.338587E1,2.630163E0,2.1764372E1,3.8987907E1,4.1407112E1,3.5056424E0,3.1899788E1,2.3873638E1,2.1852396E0,2.2217285E1,1.0802241E1,2.0465734E0,6.028805E0,5.8054905E1,6.4633107E0,7.361351E0,1.2080569E1,1.7029309E0,4.61711E0,4.8782697E0,1.0263124E0,1.5813719E0,1.0765154E0,2.4104269E0,1.1341647E0,9.485469E0,2.6753886E0,8.542535E1,7.960526E0,6.15834E0,1.5606031E1,1.6074306E1,2.29136E1,2.202522E1,1.938189E1,1.2268147E0,2.2788277E0,1.1420523E1,2.0479265E1],"tree_param":{"num_deleted":"0","num_feature":"30","num_nodes":"81","size_leaf_vector":"0"}},{"base_weights":[7.5029465E-3,6.022443E-5,7.664594E-1,-5.6848854E-1,1.1051752E-2,-6.932242E-1,-7.615202E-2,2.4098551E-1,-1.7976074E-2,-3.2496902E-1,4.6345344E-1,2.5649258E-1,-4.18781E-2,-7.6806664E-1,2.6491344E-1,4.105013E-2,6.4954644E-1,4.233208E-1,-4.5425728E-2,-9.432982E-1,-2.1589568E-2,-1.1546067E0,6.214618E-1,7.5886744E-1,-9.041779E-1,4.504876E-1,-9.851556E-1,7.4262387E-1,-1.7230828E-1,9.6056336E-1,-9.541871E-2,5.375632E-1,-1.1482649E0,-4.9037412E-1,-3.2531582E-3],"categories":[],"categories_nodes":[],"categories_segments":[],"categories_sizes":[],"default_left":[1,1,0,1,1,0,0,1,1,1,1,1,1,1,1,1,1,1,1,0,1,0,0,0,0,0,0,0,0,0,0,0,0,0,0],"id":23,"left_children":[1,3,-1,5,7,-1,-1,9,11,13,15,17,19,21,23,25,27,29,31,-1,33,-1,-1,-1,-1,-1,-1,-1,-1,-1,-1,-1,-1,-1,-1],"loss_changes":[2.455804E0,2.7030807E0,0E0,4.510119E-1,2.8365655E0,0E0,0E0,6.1481495E0,2.4886088E0,3.8702726E0,2.6935816E0,1.55031E0,6.349617E0,5.1581554E0,4.5906115E0,5.339083E0,1.9604349E0,5.5751123E0,8.153634E0,0E0,2.9352727E0,0E0,0E0,0E0,0E0,0E0,0E0,0E0,0E0,0E0,0E0,0E0,0E0,0E0,0E0],"parents":[2147483647,0,0,1,1,3,3,4,4,7,7,8,8,9,9,10,10,11,11,12,12,13,13,14,14,15,15,16,16,17,17,18,18,20,20],"right_children":[2,4,-1,6,8,-1,-1,10,12,14,16,18,20,22,24,26,28,30,32,-1,34,-1,-1,-1,-1,-1,-1,-1,-1,-1,-1,-1,-1,-1,-1],"split_conditions":[0E0,-5E-1,2.2993784E-1,5E-1,0E0,-2.0796727E-1,-2.2845607E-2,0E0,0E0,0E0,5E-1,0E0,0E0,5E-1,0E0,0E0,5E-1,5E-1,5E-1,-2.8298947E-1,0E0,-3.4638202E-1,1.8643855E-1,2.2766024E-1,-2.7125338E-1,1.3514629E-1,-2.9554668E-1,2.2278717E-1,-5.1692486E-2,2.8816903E-1,-2.8625613E-2,1.6126896E-1,-3.4447947E-1,-1.4711224E-1,-9.759475E-4],"split_indices":[5,13,0,6,9,0,0,12,17,22,7,4,4,13,21,16,13,1,28,0,29,0,0,0,0,0,0,0,0,0,0,0,0,0,0],"split_type":[0,0,0,0,0,0,0,0,0,0,0,0,0,0,0,0,0,0,0,0,0,0,0,0,0,0,0,0,0,0,0,0,0,0,0],"sum_hessian":[4.3376358E2,4.3054156E2,3.2220352E0,7.203662E0,4.233379E2,5.421956E0,1.781706E0,4.66348E1,3.767031E2,1.3028861E1,3.3605938E1,2.9397583E1,3.473055E2,7.2676253E0,5.7612357E0,1.0650801E1,2.2955137E1,1.8675907E1,1.0721676E1,6.643433E0,3.4066208E2,5.818184E0,1.4494411E0,4.2967167E0,1.4645189E0,8.014269E0,2.6365318E0,2.0706474E1,2.2486637E0,8.755932E0,9.919975E0,7.3492427E0,3.372433E0,1.1854308E1,3.2880777E2],"tree_param":{"num_deleted":"0","num_feature":"30","num_nodes":"35","size_leaf_vector":"0"}},{"base_weights":[4.789521E-3,-1.2594356E-3,7.2195876E-1,-4.787406E-1,7.2927205E-3,-7.3715556E-1,-1.6661505E-1,-1.5505526E-2,1.9468601E-1,1.1969591E-1,-3.6163232E-1,2.924939E-1,-3.31344E-2,3.3429403E-2,6.603334E-1,5.4714E-1,-2.2483386E-1,-8.548512E-1,-1.9214407E-2,6.6445273E-1,-7.0599616E-2,-7.026666E-2,8.245678E-1,-3.1871146E-1,8.2848716E-1,-8.6515707E-1,8.124448E-2,-9.925492E-1,-3.4400097E-1,2.551636E-1,-4.657952E-2,1.02508925E-2,8.806828E-1,-3.5409996E-1,2.6049E-1,-2.7242965E-1,1.6620152E-1,-9.5352344E-2,1.0223602E0],"categories":[],"categories_nodes":[],"categories_segments":[],"categories_sizes":[],"default_left":[1,1,0,1,1,0,1,1,1,0,0,1,1,1,1,1,1,1,1,1,1,1,1,0,0,0,0,0,0,0,0,0,0,0,0,0,0,0,0],"id":24,"left_children":[1,3,-1,5,7,-1,9,11,13,-1,-1,15,17,19,21,23,25,27,29,31,33,35,37,-1,-1,-1,-1,-1,-1,-1,-1,-1,-1,-1,-1,-1,-1,-1,-1],"loss_changes":[1.848918E0,1.7325555E0,0E0,4.7933555E-1,1.7843803E0,0E0,3.0422843E-1,2.0331333E0,3.379385E0,0E0,0E0,2.7942152E0,4.0257063E0,2.324806E0,1.4496822E0,3.645184E0,1.520098E0,7.103205E-2,2.6287243E0,6.9926E-1,2.9732368E0,1.9109735E-1,1.8348761E0,0E0,0E0,0E0,0E0,0E0,0E0,0E0,0E0,0E0,0E0,0E0,0E0,0E0,0E0,0E0,0E0],"parents":[2147483647,0,0,1,1,3,3,4,4,6,6,7,7,8,8,11,11,12,12,13,13,14,14,15,15,16,16,17,17,18,18,19,19,20,20,21,21,22,22],"right_children":[2,4,-1,6,8,-1,10,12,14,-1,-1,16,18,20,22,24,26,28,30,32,34,36,38,-1,-1,-1,-1,-1,-1,-1,-1,-1,-1,-1,-1,-1,-1,-1,-1],"split_conditions":[0E0,-5E-1,2.1658763E-1,5E-1,-5E-1,-2.2114667E-1,0E0,0E0,0E0,3.5908774E-2,-1.084897E-1,5E-1,0E0,0E0,-5E-1,0E0,5E-1,0E0,-5E-1,5E-1,5E-1,5E-1,0E0,-9.561344E-2,2.4854615E-1,-2.5954714E-1,2.4373347E-2,-2.9776478E-1,-1.03200294E-1,7.654908E-2,-1.3973857E-2,3.075268E-3,2.6420486E-1,-1.0622999E-1,7.8147E-2,-8.17289E-2,4.986046E-2,-2.8605705E-2,3.0670807E-1],"split_indices":[5,13,0,7,15,0,19,2,8,0,0,1,4,16,25,16,28,12,25,15,25,28,27,0,0,0,0,0,0,0,0,0,0,0,0,0,0,0,0],"split_type":[0,0,0,0,0,0,0,0,0,0,0,0,0,0,0,0,0,0,0,0,0,0,0,0,0,0,0,0,0,0,0,0,0,0,0,0,0,0,0],"sum_hessian":[4.249924E2,4.2242767E2,2.564718E0,6.4655633E0,4.1596213E2,2.7921546E0,3.6734087E0,3.716629E2,4.429921E1,1.6448225E0,2.0285861E0,1.927699E1,3.5238593E2,3.370036E1,1.0598853E1,1.2879595E1,6.3973966E0,4.863691E0,3.4752222E2,4.00705E0,2.9693308E1,2.050283E0,8.54857E0,3.126113E0,9.753482E0,1.4782583E0,4.9191384E0,3.0883107E0,1.7753801E0,3.0761883E1,3.1676035E2,1.2556133E0,2.751437E0,1.5958828E1,1.373448E1,1.0233319E0,1.0269512E0,1.6044213E0,6.9441485E0],"tree_param":{"num_deleted":"0","num_feature":"30","num_nodes":"39","size_leaf_vector":"0"}},{"base_weights":[4.1428977E-3,-7.0354976E-2,5.5690322E-2,-3.4424033E-2,-5.837495E-1,2.0839646E-2,4.039196E-1,1.8615245E-3,-4.213602E-1,-2.0113148E-1,-9.1353166E-1,9.141691E-2,-1.7463043E-1,1.22726195E-1,7.6570934E-1,-5.707247E-1,2.6630048E-2,-1.0423712E0,3.6083695E-1,1.7871064E-1,-5.8181334E-1,3.4617582E-1,-2.7221654E-2,-2.8571275E-1,2.4866068E-1,3.6827502E-1,-4.0657794E-1,2.6814184E-1,8.4278697E-1,-1.1798517E0,7.270907E-1,-1.3624723E-1,1.1725825E-1,-6.799872E-1,7.4996316E-1,-1.937786E-1,4.1144124E-1,2.0721126E-2,7.042516E-1,6.9686717E-1,-1.0144346E-1,2.6418254E-1,-3.6291203E-1,-2.62465E-1,6.523119E-1,1.010148E0,-1.0162712E-1,6.449455E-1,-8.568845E-1,5.365309E-1,-2.3590139E-1,-5.0299174E-1,1.7213154E-1,-6.775875E-2,9.529754E-1,-9.866231E-1,3.0290675E-1,-4.478915E-1,8.0038166E-1,1.930574E-1,1.0082092E0,1.3599196E-1,-2.905187E-1,7.8284967E-1,-3.3519664E-1,3.4240162E-1,-4.0386865E-1,-7.4873054E-1,4.9430096E-1,-1.6552614E-1,1.0028461E0,4.658984E-1,-3.993427E-1,-9.9399096E-1,-2.8049505E-1],"categories":[],"categories_nodes":[],"categories_segments":[],"categories_sizes":[],"default_left":[1,1,1,1,1,1,1,1,1,1,0,1,1,1,1,1,1,0,1,1,0,1,1,1,1,1,1,0,0,0,0,1,1,0,1,0,0,1,1,1,1,1,1,1,1,0,1,0,1,0,0,0,0,0,0,0,0,0,0,0,0,0,0,0,0,0,0,0,0,0,0,0,0,0,0],"id":25,"left_children":[1,3,5,7,9,11,13,15,17,19,-1,21,23,25,27,29,31,-1,33,35,-1,37,39,41,43,45,47,-1,-1,-1,-1,49,51,-1,53,-1,-1,55,57,59,61,63,65,67,69,-1,71,-1,73,-1,-1,-1,-1,-1,-1,-1,-1,-1,-1,-1,-1,-1,-1,-1,-1,-1,-1,-1,-1,-1,-1,-1,-1,-1,-1],"loss_changes":[1.619665E0,3.1621702E0,3.0163352E0,2.2793643E0,1.2321501E0,3.1561174E0,2.2072227E0,2.1335983E0,7.1371074E0,1.0405128E0,0E0,5.0838113E0,2.9264002E0,1.9587244E0,1.4607573E-1,5.789259E0,2.1435652E0,0E0,3.3056483E0,4.2709246E-1,0E0,6.2104363E0,6.2766757E0,2.1576657E0,2.885934E0,3.128637E0,2.8662174E0,0E0,0E0,0E0,0E0,3.6122544E0,3.2567177E0,0E0,9.7758794E-1,0E0,0E0,8.546101E0,3.1720457E0,1.5093255E0,4.780748E0,2.3010743E0,1.3807364E0,2.7690794E0,2.3559175E0,0E0,1.3182219E0,0E0,2.5478601E-2,0E0,0E0,0E0,0E0,0E0,0E0,0E0,0E0,0E0,0E0,0E0,0E0,0E0,0E0,0E0,0E0,0E0,0E0,0E0,0E0,0E0,0E0,0E0,0E0,0E0,0E0],"parents":[2147483647,0,0,1,1,2,2,3,3,4,4,5,5,6,6,7,7,8,8,9,9,11,11,12,12,13,13,14,14,15,15,16,16,18,18,19,19,21,21,22,22,23,23,24,24,25,25,26,26,31,31,32,32,34,34,37,37,38,38,39,39,40,40,41,41,42,42,43,43,44,44,46,46,48,48],"right_children":[2,4,6,8,10,12,14,16,18,20,-1,22,24,26,28,30,32,-1,34,36,-1,38,40,42,44,46,48,-1,-1,-1,-1,50,52,-1,54,-1,-1,56,58,60,62,64,66,68,70,-1,72,-1,74,-1,-1,-1,-1,-1,-1,-1,-1,-1,-1,-1,-1,-1,-1,-1,-1,-1,-1,-1,-1,-1,-1,-1,-1,-1,-1],"split_conditions":[5E-1,5E-1,-5E-1,-5E-1,0E0,0E0,0E0,-5E-1,5E-1,5E-1,-2.740595E-1,-5E-1,0E0,5E-1,-5E-1,5E-1,-5E-1,-3.1271136E-1,5E-1,0E0,-1.74544E-1,0E0,0E0,-5E-1,-5E-1,5E-1,0E0,8.0442555E-2,2.528361E-1,-3.539555E-1,2.1812722E-1,0E0,0E0,-2.0399617E-1,0E0,-5.8133584E-2,1.23432375E-1,0E0,0E0,0E0,0E0,0E0,0E0,5E-1,0E0,3.0304444E-1,5E-1,1.9348367E-1,0E0,1.6095927E-1,-7.077042E-2,-1.5089753E-1,5.1639464E-2,-2.0327624E-2,2.8589264E-1,-2.9598695E-1,9.087203E-2,-1.3436745E-1,2.4011451E-1,5.7917222E-2,3.024628E-1,4.079759E-2,-8.715561E-2,2.348549E-1,-1.00558996E-1,1.0272049E-1,-1.211606E-1,-2.2461917E-1,1.4829029E-1,-4.9657844E-2,3.0085385E-1,1.3976952E-1,-1.1980281E-1,-2.981973E-1,-8.414852E-2],"split_indices":[7,18,15,7,26,8,24,28,6,6,0,6,26,14,6,1,6,0,25,12,0,23,19,25,14,18,10,0,0,0,0,0,27,0,3,0,0,24,4,3,23,23,2,6,0,0,6,0,21,0,0,0,0,0,0,0,0,0,0,0,0,0,0,0,0,0,0,0,0,0,0,0,0,0,0],"split_type":[0,0,0,0,0,0,0,0,0,0,0,0,0,0,0,0,0,0,0,0,0,0,0,0,0,0,0,0,0,0,0,0,0,0,0,0,0,0,0,0,0,0,0,0,0,0,0,0,0,0,0,0,0,0,0,0,0,0,0,0,0,0,0,0,0,0,0,0,0,0,0,0,0,0,0],"sum_hessian":[4.197484E2,1.7151091E2,2.4823752E2,1.6128976E2,1.0221136E1,2.2661755E2,2.1619968E1,1.4837122E2,1.2918558E1,5.476784E0,4.744352E0,1.6689137E2,5.9726185E1,1.2918533E1,8.701436E0,5.238059E0,1.4313315E2,7.0158415E0,5.9027166E0,3.0069845E0,2.4697998E0,5.241657E1,1.144748E2,4.7568127E1,1.2158059E1,9.032504E0,3.8860295E0,1.7678828E0,6.933553E0,3.6267471E0,1.6113118E0,5.0990143E1,9.2143005E1,1.4028742E0,4.499842E0,1.2206626E0,1.7863218E0,2.8013235E1,2.4403334E1,9.863179E0,1.0461162E2,5.557761E0,4.2010365E1,5.519162E0,6.6388974E0,3.3317409E0,5.7007627E0,1.0355803E0,2.850449E0,6.012827E0,4.4977314E1,6.8255267E0,8.531748E1,1.027473E0,3.4723694E0,5.583814E0,2.242942E1,1.5975131E0,2.280582E1,4.3859587E0,5.477221E0,4.6499542E1,5.8112076E1,2.8153894E0,2.7423716E0,1.9016665E0,4.01087E1,3.3665674E0,2.1525946E0,2.1501436E0,4.488754E0,1.7671642E0,3.9335988E0,1.7174133E0,1.1330358E0],"tree_param":{"num_deleted":"0","num_feature":"30","num_nodes":"75","size_leaf_vector":"0"}},{"base_weights":[4.598369E-3,-5.8929354E-2,6.493652E-2,-1.5631963E-1,1.0071367E-1,-1.1445859E-1,1.3787122E-1,-5.40131E-1,-8.44871E-2,8.2771045E-1,4.098432E-2,4.3812013E-1,-2.45217E-1,-3.773292E-3,2.6717004E-1,1.0517061E-1,-6.596001E-1,-5.279419E-1,-2.0028602E-3,9.537292E-1,2.617187E-1,-7.143243E-1,1.0856709E-1,6.18389E-1,-2.4334551E-1,1.6756007E-1,-5.660041E-1,1.0915711E-1,-4.609375E-1,1.062638E-1,6.2390924E-1,-6.03134E-1,6.533891E-1,1.1268292E-1,-7.8559995E-1,2.2184518E-1,-7.180443E-1,1.05004914E-1,-4.676192E-1,2.5896806E-1,-1.0393043E0,2.3338802E-1,-3.9300963E-1,8.119354E-2,7.069348E-1,-4.665587E-1,1.1433868E-1,5.6321585E-1,6.285027E-2,-7.565164E-1,1.13925725E-1,-1.0881419E-1,3.377664E-1,1.6234376E-1,-9.254238E-1,-7.55924E-2,4.4414282E-1,-1.8654303E-1,6.994694E-1,4.1932374E-1,-2.7647692E-1,-5.5622138E-2,-9.395798E-1,-4.9807298E-1,7.1140623E-1,-7.76623E-1,-3.2008015E-2,-9.837476E-2,3.550417E-1,-6.34294E-1,7.298214E-1,1.09836E0,1.4113523E-1,3.9232302E-1,-7.2406954E-1,8.370239E-1,2.9420093E-1,7.3776805E-1,9.967983E-2,-1.5214178E-2,5.903626E-1,-1.0383749E0,-4.7490996E-1,5.0356793E-1,-6.630013E-1,1.7667654E-1,-3.3083162E-1,5.3610724E-1,-3.1290165E-1,3.8990405E-1,-4.0773386E-1,-9.0612906E-1,4.943356E-2,-1.6366881E-1,5.173979E-1,3.209551E-1,7.8455883E-1],"categories":[],"categories_nodes":[],"categories_segments":[],"categories_sizes":[],"default_left":[1,1,1,1,1,1,1,1,1,1,1,1,1,1,1,1,1,1,1,0,0,1,1,1,1,1,1,1,1,1,1,0,0,1,1,1,1,1,1,0,0,1,1,0,1,0,0,1,1,1,1,1,1,1,0,1,1,0,1,0,0,0,0,0,0,0,0,0,0,0,0,0,0,0,0,0,0,0,0,0,0,0,0,0,0,0,0,0,0,0,0,0,0,0,0,0,0],"id":26,"left_children":[1,3,5,7,9,11,13,15,17,19,21,23,25,27,29,31,33,35,37,-1,-1,39,41,43,45,47,49,51,53,55,57,-1,-1,59,61,63,65,67,69,-1,-1,71,73,-1,75,-1,-1,77,79,81,83,85,87,89,-1,91,93,-1,95,-1,-1,-1,-1,-1,-1,-1,-1,-1,-1,-1,-1,-1,-1,-1,-1,-1,-1,-1,-1,-1,-1,-1,-1,-1,-1,-1,-1,-1,-1,-1,-1,-1,-1,-1,-1,-1,-1],"loss_changes":[1.581831E0,3.14177E0,2.7845507E0,3.408086E0,3.3005471E0,4.566397E0,2.7646766E0,1.5775928E0,3.9020674E0,1.6250563E-1,3.7534862E0,1.6452384E0,6.787608E0,3.8190634E0,4.462814E0,1.9156986E0,1.7081985E0,2.5441084E0,4.5819197E0,0E0,0E0,2.181563E0,4.284295E0,4.1372895E-1,3.1386235E-1,9.122755E-1,3.7999315E0,2.9940178E0,4.3920135E0,3.4487934E0,1.6198425E0,0E0,0E0,4.9890602E-1,1.5703287E0,1.8162832E0,5.210123E-1,3.8382459E0,3.8925998E0,0E0,0E0,4.173872E0,3.8503299E0,0E0,2.0332861E-1,0E0,0E0,3.036101E-1,8.001865E-1,1.2948065E0,2.4965336E0,2.032007E0,3.9374394E0,1.0809733E0,0E0,3.8855681E0,9.5708585E-1,0E0,4.7148705E-1,0E0,0E0,0E0,0E0,0E0,0E0,0E0,0E0,0E0,0E0,0E0,0E0,0E0,0E0,0E0,0E0,0E0,0E0,0E0,0E0,0E0,0E0,0E0,0E0,0E0,0E0,0E0,0E0,0E0,0E0,0E0,0E0,0E0,0E0,0E0,0E0,0E0,0E0],"parents":[2147483647,0,0,1,1,2,2,3,3,4,4,5,5,6,6,7,7,8,8,9,9,10,10,11,11,12,12,13,13,14,14,15,15,16,16,17,17,18,18,21,21,22,22,23,23,24,24,25,25,26,26,27,27,28,28,29,29,30,30,33,33,34,34,35,35,36,36,37,37,38,38,41,41,42,42,44,44,47,47,48,48,49,49,50,50,51,51,52,52,53,53,55,55,56,56,58,58],"right_children":[2,4,6,8,10,12,14,16,18,20,22,24,26,28,30,32,34,36,38,-1,-1,40,42,44,46,48,50,52,54,56,58,-1,-1,60,62,64,66,68,70,-1,-1,72,74,-1,76,-1,-1,78,80,82,84,86,88,90,-1,92,94,-1,96,-1,-1,-1,-1,-1,-1,-1,-1,-1,-1,-1,-1,-1,-1,-1,-1,-1,-1,-1,-1,-1,-1,-1,-1,-1,-1,-1,-1,-1,-1,-1,-1,-1,-1,-1,-1,-1,-1],"split_conditions":[5E-1,5E-1,0E0,0E0,0E0,0E0,-5E-1,0E0,0E0,0E0,0E0,0E0,0E0,5E-1,5E-1,5E-1,-5E-1,0E0,5E-1,2.8611878E-1,7.851561E-2,0E0,5E-1,0E0,5E-1,-5E-1,5E-1,-5E-1,0E0,-5E-1,0E0,-1.809402E-1,1.9601674E-1,0E0,0E0,5E-1,-5E-1,-5E-1,-5E-1,7.769042E-2,-3.117913E-1,0E0,-5E-1,2.4358062E-2,5E-1,-1.3996762E-1,3.4301605E-2,0E0,-5E-1,0E0,5E-1,0E0,0E0,5E-1,-2.7762714E-1,0E0,0E0,-5.5962913E-2,0E0,1.2579712E-1,-8.294308E-2,-1.6686643E-2,-2.8187394E-1,-1.494219E-1,2.1342188E-1,-2.3298691E-1,-9.602405E-3,-2.951243E-2,1.0651252E-1,-1.902882E-1,2.1894643E-1,3.29508E-1,4.234057E-2,1.1769691E-1,-2.1722087E-1,2.511072E-1,8.826028E-2,2.2133042E-1,2.990395E-2,-4.5642536E-3,1.771088E-1,-3.1151247E-1,-1.42473E-1,1.5107039E-1,-1.989004E-1,5.3002965E-2,-9.924949E-2,1.6083218E-1,-9.38705E-2,1.1697122E-1,-1.2232016E-1,-2.7183872E-1,1.4830069E-2,-4.9100645E-2,1.5521938E-1,9.6286535E-2,2.3536766E-1],"split_indices":[25,28,0,24,22,11,7,16,0,8,29,2,23,6,6,7,25,16,14,0,0,4,1,16,6,6,1,6,24,14,22,0,0,23,9,7,15,14,15,0,0,11,6,0,1,0,0,26,15,12,14,12,26,14,0,27,3,0,23,0,0,0,0,0,0,0,0,0,0,0,0,0,0,0,0,0,0,0,0,0,0,0,0,0,0,0,0,0,0,0,0,0,0,0,0,0,0],"split_type":[0,0,0,0,0,0,0,0,0,0,0,0,0,0,0,0,0,0,0,0,0,0,0,0,0,0,0,0,0,0,0,0,0,0,0,0,0,0,0,0,0,0,0,0,0,0,0,0,0,0,0,0,0,0,0,0,0,0,0,0,0,0,0,0,0,0,0,0,0,0,0,0,0,0,0,0,0,0,0,0,0,0,0,0,0,0,0,0,0,0,0,0,0,0,0,0,0],"sum_hessian":[4.1067352E2,2.0006067E2,2.1061287E2,1.2427033E2,7.579034E1,6.0712063E1,1.499008E2,1.8563519E1,1.0570681E2,4.777935E0,7.1012405E1,1.1167623E1,4.954444E1,7.1998535E1,7.790227E1,2.9186077E0,1.564491E1,1.5731269E1,8.997555E1,3.3475423E0,1.4303926E0,5.046199E0,6.59662E1,8.904631E0,2.2629914E0,2.1874628E1,2.7669811E1,5.8346737E1,1.3651798E1,5.4581367E1,2.33209E1,1.2296784E0,1.6889293E0,2.209296E0,1.3435615E1,3.1480389E0,1.258323E1,7.379133E1,1.6184214E1,1.3139967E0,3.732202E0,5.3249405E1,1.2716802E1,1.5313151E0,7.373316E0,1.2059993E0,1.0569922E0,3.6612873E0,1.821334E1,2.1525776E1,6.1440344E0,3.0136559E1,2.8210178E1,6.1072016E0,7.544596E0,3.598791E1,1.8593454E1,1.8635719E0,2.1457329E1,1.1923033E0,1.0169928E0,2.5775173E0,1.0858097E1,1.2671944E0,1.8808445E0,1.1471654E1,1.1115764E0,4.1026764E1,3.276457E1,1.4619571E1,1.5646428E0,4.080858E0,4.9168545E1,3.7162197E0,9.000582E0,4.8246427E0,2.548673E0,2.2299523E0,1.4313349E0,1.6711441E1,1.5019006E0,9.415012E0,1.21107645E1,4.326212E0,1.8178226E0,1.3273052E1,1.6863506E1,2.1754807E1,6.455373E0,4.590745E0,1.5164564E0,3.8912363E0,3.2096676E1,1.867145E0,1.6726309E1,4.814102E0,1.6643227E1],"tree_param":{"num_deleted":"0","num_feature":"30","num_nodes":"97","size_leaf_vector":"0"}},{"base_weights":[4.6514696E-3,-4.2673E-2,9.035812E-2,2.5922227E-1,-7.0147015E-2,3.2777514E-2,2.7596202E-1,-2.7653024E-1,4.177538E-1,-2.6629373E-1,-1.1502357E-2,-7.303846E-3,4.652729E-1,-4.095766E-3,6.3750845E-1,-6.1796755E-1,2.5356165E-1,6.065877E-1,1.0030738E-1,1.4713955E-1,-4.284463E-1,9.254752E-3,-6.5671545E-1,2.080572E-1,-9.2388645E-2,-1.9635877E-1,6.5618616E-1,-2.0633326E-1,7.4491924E-1,-1.4534922E-1,7.4310136E-1,-2.1675898E-1,-7.4703574E-1,1.2913966E-1,8.964771E-1,4.2782417E-1,-4.8448107E-1,-5.442285E-1,6.418894E-1,-1.8996245E-1,-5.789728E-1,-1.24808796E-1,1.0309516E-1,-1.1284502E-1,-9.260728E-1,-4.243256E-1,7.0613456E-1,3.333155E-2,-4.5890966E-1,-9.038182E-2,8.1864834E-1,-4.4387192E-1,2.8817534E-1,2.7829412E-1,8.469706E-1,-3.5566032E-1,3.4822124E-1,-1.790416E-2,1.1684681E0,-3.4693548E-1,8.910981E-1,4.0778633E-2,-9.2474735E-1,-1.18240215E-1,1.1420776E0,-3.7323666E-1,2.0304805E-2,-3.2900047E-1,-8.4171367E-1,-5.8522344E-1,6.475131E-2,-3.5890678E-1,1.3374059E-1,1.2592266E-1,-2.9782754E-1,5.728863E-1,-7.6276195E-1,2.609684E-1,9.8344475E-1,-3.93851E-1,1.0937068E-1,3.169411E-1,-6.061195E-1,-7.2087026E-1,1.1688129E-1,7.0628446E-1,-5.1871485E-1,5.563568E-1,-8.0815725E-2,2.7989277E-1,9.341427E-1],"categories":[],"categories_nodes":[],"categories_segments":[],"categories_sizes":[],"default_left":[1,1,1,1,1,1,1,1,1,1,1,1,1,1,1,1,0,1,1,1,1,1,1,1,1,0,1,1,0,0,1,0,0,1,1,1,0,1,1,1,1,1,1,1,0,1,1,1,1,0,0,1,1,1,1,0,0,0,0,0,0,0,0,0,0,0,0,0,0,0,0,0,0,0,0,0,0,0,0,0,0,0,0,0,0,0,0,0,0,0,0],"id":27,"left_children":[1,3,5,7,9,11,13,15,17,19,21,23,25,27,29,31,-1,33,35,37,39,41,43,45,47,-1,49,51,-1,-1,53,-1,-1,55,57,59,-1,61,63,65,67,69,71,73,-1,75,77,79,81,-1,-1,83,85,87,89,-1,-1,-1,-1,-1,-1,-1,-1,-1,-1,-1,-1,-1,-1,-1,-1,-1,-1,-1,-1,-1,-1,-1,-1,-1,-1,-1,-1,-1,-1,-1,-1,-1,-1,-1,-1],"loss_changes":[1.6227102E0,2.1566026E0,1.511794E0,1.9601673E0,2.7242887E0,1.9058306E0,3.4006739E0,1.1631784E0,9.676709E-1,3.7185276E0,2.4646199E0,1.8776685E0,1.3065307E0,3.168845E0,1.3194637E0,2.8286576E-2,0E0,1.3458202E0,1.6624413E0,5.8583646E0,1.3051877E0,2.2627397E0,7.357259E-1,9.443255E0,3.397136E0,0E0,9.795263E-1,2.0609195E0,0E0,0E0,3.9563704E-1,0E0,0E0,6.716567E-1,1.613204E0,2.2477734E0,0E0,1.6536396E0,3.8787894E0,6.5277654E-1,1.278285E0,6.5041246E0,1.545203E0,1.717065E-1,0E0,4.964446E0,1.7944136E0,1.8484501E0,2.3407137E0,0E0,0E0,1.8720696E0,2.3723803E0,4.321889E-1,2.427144E-1,0E0,0E0,0E0,0E0,0E0,0E0,0E0,0E0,0E0,0E0,0E0,0E0,0E0,0E0,0E0,0E0,0E0,0E0,0E0,0E0,0E0,0E0,0E0,0E0,0E0,0E0,0E0,0E0,0E0,0E0,0E0,0E0,0E0,0E0,0E0,0E0],"parents":[2147483647,0,0,1,1,2,2,3,3,4,4,5,5,6,6,7,7,8,8,9,9,10,10,11,11,12,12,13,13,14,14,15,15,17,17,18,18,19,19,20,20,21,21,22,22,23,23,24,24,26,26,27,27,30,30,33,33,34,34,35,35,37,37,38,38,39,39,40,40,41,41,42,42,43,43,45,45,46,46,47,47,48,48,51,51,52,52,53,53,54,54],"right_children":[2,4,6,8,10,12,14,16,18,20,22,24,26,28,30,32,-1,34,36,38,40,42,44,46,48,-1,50,52,-1,-1,54,-1,-1,56,58,60,-1,62,64,66,68,70,72,74,-1,76,78,80,82,-1,-1,84,86,88,90,-1,-1,-1,-1,-1,-1,-1,-1,-1,-1,-1,-1,-1,-1,-1,-1,-1,-1,-1,-1,-1,-1,-1,-1,-1,-1,-1,-1,-1,-1,-1,-1,-1,-1,-1,-1],"split_conditions":[5E-1,0E0,0E0,0E0,0E0,5E-1,0E0,-5E-1,-5E-1,-5E-1,5E-1,0E0,0E0,5E-1,0E0,0E0,7.60685E-2,5E-1,5E-1,-5E-1,-5E-1,5E-1,0E0,-5E-1,5E-1,-5.890763E-2,0E0,5E-1,2.2347578E-1,-4.360477E-2,0E0,-6.50277E-2,-2.2411074E-1,-5E-1,0E0,0E0,-1.4534433E-1,0E0,5E-1,0E0,0E0,5E-1,0E0,5E-1,-2.7782184E-1,0E0,5E-1,0E0,0E0,-2.7114548E-2,2.4559452E-1,5E-1,5E-1,-5E-1,0E0,-1.066981E-1,1.0446638E-1,-5.3712483E-3,3.5054046E-1,-1.0408065E-1,2.6732942E-1,1.2233591E-2,-2.7742422E-1,-3.5472065E-2,3.426233E-1,-1.11971E-1,6.0914415E-3,-9.870014E-2,-2.5251412E-1,-1.7556703E-1,1.9425394E-2,-1.07672036E-1,4.0122177E-2,3.77768E-2,-8.9348264E-2,1.718659E-1,-2.288286E-1,7.829052E-2,2.9503343E-1,-1.1815531E-1,3.2811206E-2,9.5082335E-2,-1.8183586E-1,-2.1626109E-1,3.5064388E-2,2.1188535E-1,-1.5561447E-1,1.6690704E-1,-2.4244718E-2,8.3967835E-2,2.8024283E-1],"split_indices":[6,11,26,3,0,13,23,1,1,6,18,23,3,1,29,23,0,28,25,14,14,25,26,14,14,0,27,25,0,0,27,0,0,14,29,23,0,23,28,8,23,7,3,25,0,0,7,11,11,0,0,28,28,14,21,0,0,0,0,0,0,0,0,0,0,0,0,0,0,0,0,0,0,0,0,0,0,0,0,0,0,0,0,0,0,0,0,0,0,0,0],"split_type":[0,0,0,0,0,0,0,0,0,0,0,0,0,0,0,0,0,0,0,0,0,0,0,0,0,0,0,0,0,0,0,0,0,0,0,0,0,0,0,0,0,0,0,0,0,0,0,0,0,0,0,0,0,0,0,0,0,0,0,0,0,0,0,0,0,0,0,0,0,0,0,0,0,0,0,0,0,0,0,0,0,0,0,0,0,0,0,0,0,0,0],"sum_hessian":[3.981237E2,2.5681873E2,1.4130496E2,2.0718666E1,2.3610005E2,1.0874514E2,3.2559826E1,4.560904E0,1.6157763E1,5.3527546E1,1.8257251E2,1.0042171E2,8.323434E0,1.8904707E1,1.3655119E1,2.6732583E0,1.8876458E0,9.560083E0,6.5976787E0,1.5105724E1,3.842182E1,1.7783698E2,4.7355256E0,2.8029638E1,7.239207E1,1.8575072E0,6.4659266E0,1.5456034E1,3.448673E0,1.5781717E0,1.2076947E1,1.3028287E0,1.3704296E0,4.1577487E0,5.402335E0,4.4011703E0,2.1965086E0,6.2591386E0,8.846586E0,1.5742491E1,2.2679329E1,7.308923E1,1.0474774E2,2.0384831E0,2.6970427E0,